\data\
ngram 1=2768
ngram 2=12182
ngram 3=18284

\1-grams:
-4.1183567	<unk>	0
0	<s>	-0.63579637
-3.4271748	</s>	0
-2.4996314	I	-0.2709696
-3.8506508	disagree	-0.14086568
-2.174265	with	-0.2945207
-2.511044	this	-0.16834387
-3.5348082	statement	-0.14589529
-1.9226898	for	-0.3749427
-3.153469	several	-0.18439111
-2.8938322	reasons	-0.3760948
-1.426225	.	-2.5361726
-3.9746375	While	-0.098042734
-2.219103	it	-0.3107041
-2.269109	can	-0.31470096
-2.5472004	be	-0.18867591
-3.9746375	argued	-0.098042734
-1.9633206	that	-0.36922604
-2.8413033	having	-0.38809296
-1.8339452	a	-0.33833933
-2.4177468	part-time	-0.55441916
-2.645509	job	-0.26853126
-1.9732625	is	-0.3179428
-2.8938322	valuable	-0.14450517
-3.5348082	preparation	-0.47831634
-3.340989	full-time	-0.098042734
-1.7727894	the	-0.2817252
-2.7136247	student	-0.2349929
-2.3569138	will	-0.2810348
-3.678229	acquire	-0.098042734
-3.1054616	upon	-0.2741496
-3.340989	graduation	-0.2548424
-1.4526992	,	-0.46682543
-2.866774	often	-0.12548718
-2.4085171	not	-0.22340627
-3.5348082	case	-0.13342881
-3.8506508	In	-0.10741108
-2.7136247	many	-0.17417175
-3.2691073	cases	-0.17496733
-2.817244	any	-0.16434178
-2.9536004	employment	-0.23850599
-3.678229	obtained	-0.17195599
-2.4177468	by	-0.24772288
-1.7878366	in	-0.41475922
-2.8938322	field	-0.51152325
-1.6439362	and	-0.21729526
-1.6765372	of	-0.36378208
-3.4271748	nature	-0.14086568
-3.340989	completely	-0.098042734
-3.678229	unrelated	-0.17195599
-1.6063511	to	-0.40661365
-2.0663714	their	-0.2614526
-3.678229	chosen	-0.1281937
-3.2074509	course	-0.15613267
-2.645509	study	-0.22778022
-3.9746375	For	-0.098042734
-3.8506508	example	-0.13342881
-2.7727888	studying	-0.26001975
-3.5348082	engineering	-0.098042734
-2.6955683	has	-0.27701992
-2.817244	very	-0.16373841
-3.2074509	little	-0.098042734
-2.511044	experience	-0.28569293
-3.340989	gain	-0.16288683
-2.3035645	from	-0.26378733
-2.427177	working	-0.31814906
-2.179623	as	-0.33811408
-3.9746375	waiter	-0.098042734
-3.2691073	restaurant	-0.14784537
-3.9746375	Moreover	-0.098042734
-2.817244	there	-0.33824086
-3.8506508	ample	-0.098042734
-2.9536004	reason	-0.23492767
-2.1637433	students	-0.45364022
-3.678229	engage	-0.35337758
-3.9746375	Such	-0.098042734
-3.8506508	mean	-0.098042734
-3.678229	considerable	-0.098042734
-3.340989	amount	-0.6544076
-3.340989	additional	-0.20720947
-3.340989	stress	-0.13342881
-2.174265	on	-0.36171323
-3.8506508	top	-0.21423665
-3.9746375	created	-0.098042734
-2.9536004	studies	-0.27414817
-3.9746375	The	-0.098042734
-2.6150792	also	-0.1678165
-3.9746375	increased	-0.098042734
-3.0229268	less	-0.12430835
-2.3569138	time	-0.35682118
-3.1054616	available	-0.2964432
-3.9746375	accomplish	-0.098042734
-3.9746375	Additionally	-0.098042734
-2.6300275	jobs	-0.24673419
-3.5348082	leave	-0.098042734
-2.559954	one	-0.2572041
-3.4271748	tired	-0.14086568
-3.8506508	thus	-0.098042734
-3.5348082	unable	-0.47831634
-3.153469	focus	-0.19507152
-3.8506508	effectively	-0.098042734
-2.678233	?	-1.008282
-3.8506508	resulting	-0.098042734
-3.8506508	lower	-0.098042734
-3.5348082	quality	-0.1522653
-2.7324646	school	-0.27006212
-2.2560573	work	-0.34280708
-3.0622365	being	-0.12611718
-3.9746375	produced	-0.098042734
-3.9746375	Therefore	-0.098042734
-2.7136247	if	-0.33696187
-3.0622365	related	-0.57519233
-3.2074509	f	-0.098042734
-3.8506508	found	-0.098042734
-2.678233	-LRB-	-0.12223055
-2.6150792	such	-0.35941598
-2.5472004	an	-0.14576791
-3.9746375	internship	-0.098042734
-2.645509	-RRB-	-0.27277613
-2.9868817	then	-0.11401739
-2.5866425	may	-0.2907103
-3.9746375	worth	-0.098042734
-3.4271748	pursuing	-0.098042734
-2.9536004	but	-0.17043503
-3.8506508	otherwise	-0.098042734
-2.4885108	should	-0.35904452
-2.794448	only	-0.15665703
-3.9746375	sought	-0.098042734
-3.153469	necessary	-0.19507152
-2.922689	financial	-0.13703011
-3.9746375	i.e.	-0.098042734
-3.2074509	pay	-0.22503476
-3.153469	tuition	-0.18922512
-3.340989	fees	-0.22739327
-3.9746375	Yes	-0.098042734
-3.340989	agree	-0.33653778
-2.269109	college	-0.44256377
-2.4085171	have	-0.30732065
-3.9746375	Time	-0.098042734
-2.559954	money	-0.36377907
-2.2825649	they	-0.39242604
-3.340989	say	-0.20720947
-3.9746375	And	-0.098042764
-2.7727888	you	-0.17147988
-3.1054616	extra	-0.271326
-3.2691073	making	-0.18983142
-2.6150792	some	-0.23380876
-2.661563	so	-0.20789708
-3.153469	bad	-0.14589529
-3.5348082	following	-0.12131027
-3.0229268	:	-0.11285661
-3.5348082	-	-0.098042734
-3.678229	To	-0.115375474
-3.4271748	begin	-0.20720947
-3.2691073	today	-0.12430835
-3.153469	's	-0.116145
-3.8506508	market	-0.098042734
-3.1054616	become	-0.12322667
-3.5348082	highly	-0.098042734
-3.8506508	competitive	-0.098042734
-2.817244	most	-0.1802425
-3.340989	degree	-0.12131027
-3.2691073	does	-0.1281937
-3.8506508	guarantee	-0.098042734
-2.2017417	or	-0.1551769
-3.8506508	pays	-0.098042734
-2.8413033	well	-0.22909641
-3.9746375	Most	-0.098042734
-3.9746375	advertisements	-0.098042734
-3.8506508	appear	-0.098042734
-3.9746375	newspapers	-0.098042734
-3.9746375	on-line	-0.098042734
-3.9746375	portals	-0.098042734
-3.8506508	preferred	-0.098042734
-3.8506508	candidates	-0.098042734
-2.8413033	even	-0.14589529
-3.9746375	entry	-0.098042734
-3.340989	level	-0.20720947
-3.340989	positions	-0.1281937
-2.2625341	are	-0.2012413
-3.8506508	As	-0.14086568
-3.5348082	ways	-0.098042734
-3.0622365	career	-0.22583756
-3.9746375	oriented	-0.098042734
-3.5348082	internships	-0.098042734
-3.4271748	practical	-0.098042734
-3.2074509	experiences	-0.17723958
-3.9746375	Another	-0.098042734
-3.9746375	option	-0.098042734
-3.9746375	Part-time	-0.098042734
-3.2074509	offer	-0.12131027
-3.2074509	benefits	-0.12430835
-3.9746375	Primarily	-0.098042734
-3.2691073	benefit	-0.14589529
-3.9746375	Apart	-0.098042734
-2.559954	part	-0.73008823
-3.9746375	lays	-0.098042734
-3.8506508	foundation	-0.17195599
-3.8506508	history	-0.098042734
-3.0622365	future	-0.20006908
-3.5348082	carefully	-0.098042734
-3.4271748	consider	-0.1281937
-3.9746375	select	-0.098042734
-3.8506508	order	-0.21423665
-3.5348082	skill	-0.1522653
-3.8506508	By	-0.12430835
-3.9746375	selecting	-0.098042734
-3.9746375	gaps	-0.098042734
-3.0622365	academic	-0.13560295
-3.8506508	qualification	-0.098042734
-3.9746375	minimized	-0.098042734
-2.8938322	;	-0.16036421
-3.2074509	makes	-0.26010817
-3.8506508	candidate	-0.098042734
-2.4670892	more	-0.15903787
-3.9746375	attractive	-0.098042734
-3.340989	potential	-0.098042734
-3.1054616	employers	-0.118926615
-3.2691073	helps	-0.1522653
-2.9536004	better	-0.116986044
-3.2691073	understanding	-0.30636662
-3.4271748	whether	-0.13342881
-3.9746375	corporate	-0.098042734
-3.5348082	organization	-0.098042734
-3.8506508	hotel	-0.098042734
-3.678229	industry	-0.098042734
-3.9746375	evolve	-0.098042734
-2.5348108	skills	-0.3170925
-2.678233	important	-0.3392031
-3.678229	employer	-0.098042734
-3.9746375	These	-0.098042734
-3.678229	include	-0.098042734
-3.8506508	leadership	-0.21423665
-3.8506508	commitment	-0.21423665
-3.8506508	team	-0.098042734
-3.9746375	spirit	-0.098042734
-3.8506508	interpersonal	-0.098042734
-3.5348082	management	-0.18983142
-3.1054616	taking	-0.24834287
-3.9746375	criticism	-0.098042734
-3.9746375	positively	-0.098042734
-3.9746375	Besides	-0.098042734
-3.2691073	knowledge	-0.24782339
-3.678229	gained	-0.098042734
-2.866774	through	-0.1740617
-3.340989	educational	-0.098042734
-2.7136247	who	-0.23004654
-3.340989	productive	-0.098042734
-3.4271748	developed	-0.098042734
-3.8506508	overall	-0.098042734
-3.678229	personality	-0.17195599
-3.153469	able	-0.8304989
-3.9746375	assimilate	-0.098042734
-2.866774	themselves	-0.16573042
-2.7136247	into	-0.24834287
-3.0622365	environment	-0.098042734
-3.340989	learned	-0.12430835
-3.340989	position	-0.17723958
-3.9746375	expand	-0.098042734
-3.5348082	increase	-0.1522653
-3.678229	abilities	-0.098042734
-2.3035645	at	-0.35974315
-3.8506508	same	-0.098042734
-3.9746375	benefiting	-0.098042734
-3.2074509	financially	-0.14589529
-3.9746375	There	-0.098042734
-3.2691073	two	-0.33214822
-2.9868817	first	-0.1447969
-3.340989	issue	-0.18983142
-3.8506508	Many	-0.115375474
-3.9746375	complain	-0.098042734
-3.4271748	don	-0.45026425
-3.153469	ft	-0.12271854
-2.866774	enough	-0.19867742
-2.9868817	spend	-0.2253515
-3.2691073	food	-0.14920501
-3.4271748	times	-0.14086568
-3.9746375	Having	-0.098042734
-3.2074509	gives	-0.20895563
-2.866774	need	-0.30885217
-3.9746375	emergency	-0.098042734
-3.9746375	Saving	-0.098042734
-3.678229	earned	-0.14086568
-2.8938322	good	-0.11466875
-3.153469	idea	-0.34725833
-3.9746375	alternative	-0.098042734
-3.9746375	asking	-0.098042734
-3.2074509	others	-0.17195599
-3.0229268	like	-0.13847902
-2.8938322	parents	-0.19664675
-3.1054616	friends	-0.28161559
-3.9746375	However	-0.098042734
-2.922689	doing	-0.17161582
-3.678229	again	-0.098042734
-3.4271748	put	-0.098042734
-3.9746375	strains	-0.098042734
-3.4271748	relationships	-0.1605951
-2.522765	people	-0.20933177
-3.8506508	borrowed	-0.21423665
-3.9746375	They	-0.098042734
-3.4271748	eventually	-0.098042734
-3.340989	see	-0.098042764
-3.9746375	evampire	-0.098042734
-3.9746375	f.	-0.098042734
-3.8506508	This	-0.10566091
-3.340989	especially	-0.13342881
-3.340989	true	-0.098042734
-3.5348082	College	-0.14589529
-3.678229	show	-0.098042734
-3.678229	fre	-0.098042734
-3.8506508	putting	-0.098042734
-3.5348082	effort	-0.098042734
-3.8506508	keeping	-0.098042734
-3.8506508	stable	-0.098042734
-3.9746375	People	-0.098042734
-3.8506508	willing	-0.21423665
-2.9868817	help	-0.23529968
-2.511044	when	-0.33111084
-3.8506508	trying	-0.21423665
-2.7324646	do	-0.258052
-3.2691073	something	-0.2100067
-3.0229268	your	-0.14409229
-3.4271748	earn	-0.14589529
-2.9868817	other	-0.12005409
-2.8413033	while	-0.3406869
-3.9746375	Of	-0.098042734
-3.5348082	major	-0.098042734
-3.9746375	advantage	-0.098042734
-3.8506508	teaching	-0.098042734
-3.0229268	take	-0.14324087
-3.9746375	tutoring	-0.098042734
-2.9868817	high	-0.25890478
-3.4271748	chance	-0.20720947
-3.153469	use	-0.14086568
-3.9746375	theories	-0.098042734
-3.9746375	practices	-0.098042734
-2.922689	classes	-0.19090188
-3.678229	fll	-0.098042734
-3.2074509	know	-0.13679342
-2.661563	what	-0.21927345
-3.8506508	works	-0.098042734
-3.9746375	doesn	-0.098042734
-3.678229	ft.	-0.35337758
-2.7136247	could	-0.19622515
-3.8506508	expanding	-0.21423665
-3.9746375	horizons	-0.098042734
-3.8506508	increasing	-0.098042734
-3.678229	opportunities	-0.098042734
-2.7727888	after	-0.42475128
-3.9746375	conclusion	-0.098042734
-3.5348082	encourage	-0.098042734
-2.4996314	all	-0.22485438
-2.7521589	because	-0.31599462
-3.2074509	opportunity	-0.37108302
-2.511044	them	-0.2832598
-3.9746375	present	-0.098042734
-3.9746375	situations	-0.098042734
-3.9746375	futures	-0.098042734
-3.1054616	Japanese	-0.22962537
-3.678229	distractions	-0.17195599
-3.2074509	real	-0.13060203
-3.4271748	therefore	-0.098042734
-3.0622365	provide	-0.15665703
-3.153469	useful	-0.14589529
-2.9868817	society	-0.23463899
-3.8506508	specialized	-0.098042734
-3.9746375	Workers	-0.098042734
-3.678229	expected	-0.35337758
-3.9746375	function	-0.098042734
-3.9746375	broad	-0.098042734
-3.8506508	range	-0.21423665
-3.9746375	contexts	-0.098042734
-3.9746375	Evaluations	-0.098042734
-2.8938322	must	-0.2078073
-3.9746375	familiar	-0.098042734
-3.340989	done	-0.12430835
-3.678229	area	-0.1522653
-3.9746375	specialty	-0.098042734
-3.9746375	If	-0.098042734
-3.4271748	n't	-0.098042734
-3.4271748	whatever	-0.14086568
-3.340989	might	-0.13342881
-3.8506508	produce	-0.098042734
-3.678229	fit	-0.1522653
-3.9746375	Neither	-0.098042734
-3.8506508	nor	-0.098042734
-3.9746375	Learning	-0.098042734
-3.4271748	itself	-0.098042734
-3.9746375	Because	-0.098042734
-3.9746375	external	-0.098042734
-3.8506508	subject	-0.098042734
-3.8506508	interfere	-0.21423665
-3.5348082	grades	-0.14086568
-3.9746375	specialization	-0.098042734
-3.9746375	It	-0.098042734
-3.340989	usually	-0.098042734
-3.678229	menial	-0.098042734
-3.9746375	specialist	-0.098042734
-3.9746375	useless	-0.098042734
-2.8413033	get	-0.23702982
-3.8506508	fields	-0.098042734
-3.9746375	Internships	-0.098042734
-3.678229	relevant	-0.098042734
-3.5348082	another	-0.098042734
-3.8506508	source	-0.21423665
-3.8506508	temptation	-0.21423665
-3.4271748	colleges	-0.098042734
-3.340989	club	-0.13342881
-2.9536004	activities	-0.16798685
-3.9746375	socialize	-0.098042734
-3.8506508	sufficient	-0.098042734
-3.2074509	teach	-0.098042734
-2.8938322	how	-0.32529625
-3.9746375	behave	-0.098042734
-3.2691073	away	-0.5172111
-3.2691073	give	-0.16397229
-3.9746375	unstructured	-0.098042734
-2.7324646	social	-0.17316
-3.9746375	unpredictable	-0.098042734
-3.9746375	results	-0.098042734
-3.9746375	unwilling	-0.098042734
-3.5348082	fellow	-0.274173
-3.8506508	teachers	-0.098042734
-3.9746375	unworthy	-0.098042734
-3.9746375	finely	-0.098042734
-3.9746375	honed	-0.098042734
-3.2691073	workers	-0.098042764
-3.678229	demands	-0.098042734
-3.8506508	strongly	-0.098042734
-3.2691073	believe	-0.24114136
-2.794448	fs	-0.12210803
-3.678229	main	-0.14589529
-3.9746375	lot	-0.098042734
-2.559954	life	-0.31104797
-3.2691073	entering	-0.17723958
-3.9746375	workforce	-0.098042734
-3.678229	prior	-0.17195599
-3.9746375	recently-graduated	-0.098042734
-3.9746375	woefully	-0.098042734
-3.9746375	unprepared	-0.098042734
-3.8506508	realities	-0.098042734
-3.153469	responsibilities	-0.14784537
-3.8506508	particularly	-0.098042734
-2.8938322	university	-0.21144658
-3.340989	used	-0.20720947
-3.678229	staying	-0.098042734
-2.7521589	up	-0.19388978
-3.340989	late	-0.098042734
-3.8506508	night	-0.21423665
-3.678229	sleeping	-0.098042734
-3.9746375	neglecting	-0.098042734
-3.8506508	commitments	-0.098042734
-3.0229268	no	-0.12131027
-3.4271748	immediate	-0.098042734
-3.9746375	repercussions	-0.098042734
-3.5348082	result	-0.14086568
-3.2074509	difficult	-0.3447334
-3.153469	make	-0.13503471
-3.5348082	lifestyle	-0.098042734
-3.9746375	adjustment	-0.098042734
-3.9746375	subsequent	-0.098042734
-3.8506508	A	-0.11285661
-3.9746375	undertaken	-0.098042734
-3.2691073	still	-0.098042734
-3.4271748	quite	-0.098042764
-3.678229	helpful	-0.17195599
-3.678229	regard	-0.1522653
-3.9746375	Maintaining	-0.098042734
-3.9746375	exercise	-0.098042734
-3.153469	personal	-0.098042734
-3.8506508	recent	-0.21423665
-3.340989	graduates	-0.1281937
-3.8506508	similarly	-0.098042734
-3.9746375	difficulty	-0.098042734
-3.5348082	managing	-0.23276964
-3.2074509	finances	-0.14589529
-3.8506508	responsibly	-0.098042734
-3.9746375	western	-0.098042734
-3.678229	countries	-0.17195599
-3.8506508	unfortunate	-0.098042734
-3.8506508	reality	-0.098042734
-3.9746375	combines	-0.098042734
-3.8506508	levels	-0.098042734
-3.4271748	debt	-0.14086568
-3.4271748	credit	-0.45026425
-3.8506508	cards	-0.13342881
-3.340989	loans	-0.13342881
-3.8506508	etc.	-0.17195599
-3.9746375	grave	-0.098042734
-3.9746375	peril	-0.098042734
-3.8506508	providing	-0.098042734
-3.5348082	cash	-0.098042734
-3.9746375	flow	-0.098042734
-3.8506508	least	-0.098042734
-3.8506508	small	-0.098042734
-2.9868817	income	-0.1281937
-2.6300275	which	-0.26262486
-3.9746375	counter	-0.098042734
-3.9746375	debts	-0.098042734
-3.8506508	largely	-0.098042734
-3.9746375	Firstly	-0.098042734
-3.5348082	been	-0.098042734
-3.8506508	myself	-0.098042734
-3.8506508	am	-0.098042764
-3.678229	aware	-0.098042734
-3.678229	pressures	-0.098042734
-3.9746375	generated	-0.098042734
-2.9536004	living	-0.38954097
-3.5348082	expenses	-0.098042734
-3.9746375	Often	-0.098042734
-2.6150792	these	-0.16411746
-3.9746375	met	-0.098042734
-3.9746375	combination	-0.098042734
-3.9746375	grants	-0.098042734
-3.0622365	family	-0.15366085
-3.8506508	savings	-0.098042734
-3.9746375	restrict	-0.098042734
-2.8938322	during	-0.29814366
-3.8506508	crucial	-0.098042734
-3.5348082	period	-0.14086568
-3.340989	adult	-0.098042734
-3.4271748	development	-0.29227865
-3.2691073	earning	-0.1522653
-3.9746375	constructive	-0.098042734
-2.9868817	way	-0.23310995
-3.9746375	easing	-0.098042734
-3.678229	allowing	-0.098042734
-3.4271748	lead	-0.37145987
-3.5348082	independent	-0.1605951
-3.8506508	Secondly	-0.21423665
-3.9746375	regards	-0.098042734
-3.9746375	prospects	-0.098042734
-3.8506508	rarely	-0.098042734
-3.340989	factor	-0.098042734
-3.8506508	majority	-0.21423665
-3.4271748	graduate	-0.12430835
-3.153469	professional	-0.12131027
-3.9746375	transferable	-0.098042734
-3.5348082	ability	-0.14086568
-3.9746375	communicate	-0.098042734
-3.0622365	customers	-0.17496733
-3.2691073	responsible	-0.17723958
-3.678229	almost	-0.098042734
-3.9746375	achievement	-0.098042734
-3.9746375	Not	-0.098042734
-3.9746375	demonstrating	-0.098042734
-3.9746375	attributes	-0.098042734
-3.678229	aspects	-0.35337758
-3.4271748	enjoy	-0.13342881
-3.9746375	expect	-0.098042734
-3.2691073	once	-0.2741563
-3.9746375	Thirdly	-0.098042734
-3.9746375	wider	-0.098042734
-3.9746375	scale	-0.098042734
-3.8506508	necessity	-0.098042734
-3.9746375	economical	-0.098042734
-3.4271748	sense	-0.3119509
-3.8506508	businesses	-0.098042734
-3.8506508	require	-0.098042734
-3.678229	force	-0.098042734
-3.8506508	flexible	-0.098042734
-3.9746375	fill	-0.098042734
-2.645509	would	-0.25441036
-3.678229	member	-0.35337758
-3.9746375	staff	-0.098042734
-3.9746375	contrast	-0.098042734
-3.5348082	arguments	-0.098042734
-3.340989	however	-0.24782339
-3.9746375	cope	-0.098042734
-3.8506508	depends	-0.098042734
-3.5348082	situation	-0.21423665
-3.9746375	determined	-0.098042734
-3.9746375	condition	-0.098042734
-3.2074509	year	-0.17723958
-3.8506508	type	-0.21423665
-3.9746375	builds	-0.098042734
-3.9746375	encourages	-0.098042734
-3.8506508	stake	-0.098042734
-2.7521589	education	-0.32130542
-3.8506508	prepares	-0.21423665
-3.0229268	world	-0.18407424
-3.9746375	encounter	-0.098042734
-3.9746375	countless	-0.098042734
-3.9746375	acquired	-0.098042734
-3.9746375	readily	-0.098042734
-3.9746375	apparent	-0.098042734
-3.5348082	balancing	-0.098042734
-3.9746375	Skills	-0.098042734
-3.9746375	prioritization	-0.098042734
-3.9746375	multitasking	-0.098042734
-3.5348082	finding	-0.23276964
-3.2074509	success	-0.14086568
-2.9536004	going	-0.5208247
-3.340989	provides	-0.13342881
-3.8506508	perfect	-0.098042734
-3.5348082	training	-0.1522653
-3.8506508	ground	-0.098042734
-3.678229	improve	-0.098042734
-3.9746375	Too	-0.098042734
-3.5348082	burden	-0.1522653
-3.8506508	supported	-0.098042734
-3.4271748	entirely	-0.098042734
-3.9746375	consequence	-0.098042734
-3.8506508	concept	-0.21423665
-3.678229	actual	-0.1522653
-3.340989	cost	-0.45026425
-3.9746375	Without	-0.098042734
-3.8506508	``	-0.098042734
-3.678229	''	-0.098042734
-3.2691073	place	-0.12430835
-3.340989	importance	-0.1605951
-3.153469	were	-0.13679342
-3.9746375	coming	-0.098042734
-2.7136247	out	-0.22350419
-3.340989	own	-0.10952071
-3.9746375	pockets	-0.098042734
-3.9746375	That	-0.098042734
-2.866774	where	-0.23291408
-3.8506508	contribute	-0.098042734
-3.678229	giving	-0.098042734
-3.4271748	value	-0.20895563
-3.2691073	find	-0.15366085
-3.4271748	transition	-0.20720947
-3.5348082	campus	-0.14086568
-3.9746375	campuses	-0.098042734
-3.9746375	unique	-0.098042734
-3.9746375	environments	-0.098042734
-3.9746375	passion	-0.098042734
-2.8413033	learning	-0.21896097
-3.9746375	discovery	-0.098042734
-3.9746375	cultivated	-0.098042734
-3.8506508	continue	-0.098042734
-3.9746375	maintain	-0.098042734
-3.678229	explore	-0.098042764
-3.9746375	talents	-0.098042734
-3.4271748	interests	-0.098042734
-3.153469	full	-0.35333085
-3.8506508	extent	-0.098042734
-2.922689	without	-0.14086564
-3.8506508	worrying	-0.21423665
-2.866774	about	-0.12520002
-3.8506508	translate	-0.098042734
-3.678229	directly	-0.17195599
-3.9746375	salable	-0.098042734
-3.9746375	product	-0.098042734
-3.9746375	ones	-0.098042734
-3.8506508	expose	-0.21423665
-3.8506508	partially	-0.098042734
-3.9746375	awaits	-0.098042734
-3.9746375	Should	-0.098042734
-3.8506508	answer	-0.098042734
-3.8506508	question	-0.098042734
-3.9746375	subjective	-0.098042734
-3.9746375	blanket	-0.098042734
-3.9746375	yes-or-no	-0.098042734
-3.8506508	overlook	-0.21423665
-3.4271748	various	-0.098042734
-3.678229	factors	-0.098042734
-3.340989	different	-0.13342881
-3.5348082	limited	-0.1522653
-3.9746375	supplies	-0.098042734
-3.9746375	probable	-0.098042734
-3.4271748	impact	-0.20720947
-3.8506508	energy	-0.098042734
-3.9746375	reduction	-0.098042734
-3.8506508	effectiveness	-0.098042734
-3.9746375	completing	-0.098042734
-3.5348082	assignments	-0.098042734
-3.9746375	relevance	-0.098042734
-3.9746375	Considerations	-0.098042734
-3.9746375	pertaining	-0.098042734
-3.9746375	fairly	-0.098042734
-3.8506508	straightforward	-0.098042734
-3.2691073	either	-0.098042764
-3.5348082	requires	-0.098042734
-3.0229268	support	-0.16036421
-3.9746375	rises	-0.098042734
-3.9746375	falls	-0.098042734
-3.9746375	relation	-0.098042734
-3.2691073	second	-0.18983142
-3.2691073	never	-0.14589529
-2.9868817	too	-0.28712735
-3.340989	great	-0.098042734
-3.8506508	relative	-0.21423665
-3.8506508	addition	-0.21423665
-3.9746375	scholastic	-0.098042734
-3.678229	keep	-0.098042734
-3.678229	last	-0.098042734
-3.8506508	complicated	-0.098042734
-3.8506508	determination	-0.098042734
-3.8506508	stand	-0.098042734
-3.5348082	particular	-0.14086568
-3.8506508	convenience	-0.098042734
-3.9746375	store	-0.098042734
-3.2074509	someone	-0.098042734
-3.2691073	business	-0.18983142
-3.9746375	Each	-0.098042734
-3.678229	weigh	-0.098042734
-3.678229	decide	-0.1522653
-3.4271748	based	-0.37108302
-3.9746375	particulars	-0.098042734
-3.5348082	feel	-0.1281937
-3.340989	allows	-0.47831634
-3.340989	start	-0.21344972
-3.8506508	building	-0.098042734
-3.9746375	strong	-0.098042734
-3.9746375	ethic	-0.098042734
-3.8506508	ease	-0.17195599
-3.9746375	Young	-0.098042734
-3.678229	subjects	-0.098042734
-2.9536004	learn	-0.27956232
-3.2691073	lessons	-0.19561017
-3.678229	successful	-0.098042734
-3.9746375	saving	-0.098042734
-3.340989	free	-0.13342881
-3.9746375	structure	-0.098042734
-3.9746375	divide	-0.098042734
-3.678229	areas	-0.098042734
-3.678229	contacts	-0.098042734
-3.5348082	best	-0.098042734
-3.9746375	intends	-0.098042734
-3.9746375	pursue	-0.098042734
-3.9746375	exhausting	-0.098042734
-3.9746375	So	-0.098042764
-3.340989	let	-0.1605951
-3.5348082	becomes	-0.098042734
-3.9746375	time-consuming	-0.098042734
-3.8506508	stressful	-0.098042734
-3.9746375	priorities	-0.098042734
-3.9746375	straight	-0.098042734
-3.5348082	quit	-0.098042764
-3.153469	rather	-0.62635547
-2.9868817	than	-0.116145
-3.8506508	sacrifice	-0.098042734
-3.9746375	Despite	-0.098042734
-3.8506508	risks	-0.098042734
-3.4271748	though	-0.098042734
-3.2691073	beneficial	-0.18983142
-3.9746375	imply	-0.098042734
-3.2074509	just	-0.12131027
-3.8506508	pocket	-0.21423665
-3.8506508	Some	-0.1281937
-3.2691073	possible	-0.19513752
-3.0229268	those	-0.21913707
-3.4271748	final	-0.18837766
-2.8938322	years	-0.1851878
-3.8506508	medicine	-0.098042734
-3.2691073	three	-0.24782339
-3.8506508	lesson	-0.098042734
-3.0622365	before	-0.20159532
-3.5348082	enter	-0.12430835
-3.5348082	taste	-0.274173
-3.2691073	come	-0.22739327
-3.678229	manage	-0.098042734
-3.9746375	secure	-0.098042734
-3.4271748	means	-0.18983142
-3.8506508	relying	-0.21423665
-3.8506508	organizations	-0.098042734
-3.9746375	Perhaps	-0.098042734
-3.9746375	Lastly	-0.098042734
-3.9746375	lying	-0.098042734
-3.678229	beyond	-0.17195599
-3.9746375	gates	-0.098042734
-3.1054616	outside	-0.4612686
-3.9746375	circles	-0.098042734
-3.4271748	meet	-0.12430835
-3.0622365	new	-0.11185315
-3.8506508	offers	-0.098042734
-3.9746375	considered	-0.098042734
-3.1054616	against	-0.31554228
-3.5348082	load	-0.098042734
-2.866774	much	-0.1445523
-3.8506508	hinder	-0.098042734
-3.5348082	performance	-0.1522653
-3.340989	books	-0.18983142
-3.9746375	hindrance	-0.098042734
-3.2691073	worked	-0.118926615
-2.5472004	my	-0.18626033
-3.340989	did	-0.17723958
-3.0229268	really	-0.11097703
-3.2691073	until	-0.098042764
-3.9746375	weeks	-0.098042734
-3.8506508	workload	-0.098042734
-3.2074509	was	-0.098042734
-3.9746375	huge	-0.098042734
-3.2074509	go	-0.21358076
-3.8506508	conclude	-0.098042734
-3.4271748	now	-0.14086568
-3.2074509	needs	-0.22443497
-3.340989	costs	-0.22739327
-3.678229	certain	-0.098042734
-3.1054616	understand	-0.3119509
-3.8506508	matter	-0.098042734
-3.4271748	every	-0.098042734
-3.4271748	afford	-0.1281937
-3.9746375	maintaining	-0.098042734
-3.9746375	son	-0.098042734
-3.9746375	daughter	-0.098042734
-3.8506508	dedicate	-0.21423665
-3.5348082	him	-0.098042734
-3.9746375	herself	-0.098042734
-3.9746375	moreover	-0.098042734
-2.9868817	getting	-0.18788324
-3.678229	higher	-0.098042734
-3.9746375	Nevertheless	-0.098042734
-3.678229	extreme	-0.098042734
-3.9746375	maturing	-0.098042734
-3.9746375	consume	-0.098042734
-3.9746375	momentum	-0.098042734
-3.9746375	preciously	-0.098042734
-3.9746375	innumerous	-0.098042734
-2.922689	hard	-0.2925273
-3.8506508	so-called	-0.098042734
-3.4271748	back	-0.14086568
-3.8506508	classrooms	-0.098042734
-3.4271748	lack	-0.37108302
-3.8506508	power	-0.098042734
-3.5348082	concentrate	-0.14086568
-3.8506508	active	-0.098042734
-3.9746375	role	-0.098042734
-3.678229	process	-0.17195599
-2.9868817	!	-0.707252
-3.9746375	resting	-0.098042734
-3.9746375	acquiring	-0.098042734
-3.9746375	exclusively	-0.098042734
-3.340989	poor	-0.098042734
-3.678229	participation	-0.17195599
-3.9746375	dedicated	-0.098042734
-3.8506508	solution	-0.098042734
-3.9746375	scholarships	-0.098042734
-3.8506508	government	-0.098042734
-3.4271748	system	-0.098042734
-3.5348082	allow	-0.098042734
-3.678229	practice	-0.098042734
-3.8506508	comparison	-0.098042734
-2.8413033	young	-0.4036615
-3.4271748	adults	-0.20720947
-3.8506508	tend	-0.21423665
-3.2691073	always	-0.098042734
-3.9746375	specialisation	-0.098042734
-3.9746375	counterparts	-0.098042734
-3.9746375	Generally	-0.098042734
-3.9746375	non	-0.098042734
-3.9746375	adapt	-0.098042734
-3.8506508	relatively	-0.098042734
-3.5348082	short	-0.098042734
-3.4271748	problem	-0.098042764
-3.2691073	since	-0.12131027
-3.2691073	change	-0.1605951
-3.9746375	manageable	-0.098042734
-3.678229	concerned	-0.098042734
-3.8506508	sophisticated	-0.098042734
-3.8506508	whilst	-0.098042734
-3.9746375	furthering	-0.098042734
-3.5348082	insight	-0.1522653
-3.9746375	assimilation	-0.098042734
-3.9746375	bridging	-0.098042734
-3.340989	effect	-0.13342881
-3.678229	enables	-0.098042734
-3.8506508	quickly	-0.098042734
-3.9746375	leap	-0.098042734
-3.8506508	Working	-0.1281937
-3.5348082	teaches	-0.23276964
-3.8506508	theory	-0.098042734
-3.2691073	universities	-0.1281937
-3.5348082	likely	-0.14086568
-3.9746375	budgeting	-0.098042734
-3.9746375	ethics	-0.098042734
-3.0622365	workplace	-0.16288683
-3.8506508	productivity	-0.098042734
-3.9746375	manner	-0.098042734
-3.9746375	issues	-0.098042734
-3.340989	instead	-0.3119509
-3.9746375	core	-0.098042734
-3.8506508	material	-0.098042734
-3.9746375	respective	-0.098042734
-3.9746375	We	-0.098042734
-3.9746375	hope	-0.098042734
-3.8506508	principle	-0.098042734
-3.5348082	concern	-0.098042734
-3.9746375	But	-0.098042734
-3.9746375	definition	-0.098042734
-3.8506508	worker	-0.098042734
-3.9746375	follows	-0.098042734
-3.4271748	problems	-0.20720947
-3.340989	perhaps	-0.098042734
-3.2074509	fully	-0.098042734
-3.2691073	families	-0.098042734
-3.9746375	Others	-0.098042734
-3.9746375	older	-0.098042734
-3.9746375	saved	-0.098042734
-3.678229	courses	-0.098042734
-3.9746375	began	-0.098042734
-3.8506508	fall	-0.098042734
-3.9746375	somewhere	-0.098042734
-3.2074509	between	-0.12430835
-3.9746375	bit	-0.098042734
-3.9746375	book	-0.098042734
-3.4271748	hold	-0.098042734
-3.8506508	escape	-0.21423665
-3.9746375	confines	-0.098042734
-3.8506508	worlds	-0.098042734
-3.8506508	brought	-0.098042734
-3.4271748	far	-0.098042734
-3.9746375	dip	-0.098042734
-3.9746375	toes	-0.098042734
-3.9746375	unfathomable	-0.098042734
-3.9746375	waters	-0.098042734
-3.9746375	immersed	-0.098042734
-3.9746375	Thereby	-0.098042734
-3.8506508	preparing	-0.17195599
-3.9746375	traverse	-0.098042734
-3.678229	rest	-0.098042734
-3.340989	lives	-0.13679342
-3.9746375	Wages	-0.098042734
-3.9746375	gainful	-0.098042734
-3.8506508	sample	-0.098042734
-3.9746375	delights	-0.098042734
-3.1054616	want	-0.2983345
-3.678229	try	-0.1522653
-2.866774	things	-0.21986672
-3.9746375	previously	-0.098042734
-3.9746375	unavailable	-0.098042734
-3.8506508	rounded	-0.098042734
-3.4271748	takes	-0.13342881
-3.8506508	hopefully	-0.098042734
-3.340989	appreciate	-0.18983142
-3.9746375	paying	-0.098042734
-3.9746375	next	-0.098042734
-3.8506508	round	-0.098042734
-3.9746375	drinks	-0.098042734
-3.9746375	Students	-0.098042734
-3.8506508	definitely	-0.098042734
-3.5348082	harder	-0.098042734
-3.8506508	suffer	-0.098042734
-3.9746375	Suffering	-0.098042734
-3.8506508	wo	-0.21423665
-3.9746375	kill	-0.098042734
-3.9746375	Part	-0.098042734
-3.678229	fun	-0.17195599
-3.9746375	Jobs	-0.098042734
-3.9746375	mostly	-0.098042734
-3.4271748	basic	-0.098042734
-3.678229	simple	-0.17195599
-3.4271748	tasks	-0.098042734
-3.8506508	suffering	-0.098042734
-3.5348082	labor	-0.098042734
-3.9746375	fatal	-0.098042734
-3.9746375	timing	-0.098042734
-3.340989	Japan	-0.13847902
-3.8506508	America	-0.1522653
-3.5348082	rent	-0.098042734
-3.8506508	married	-0.098042734
-3.2691073	generally	-0.098042764
-3.2691073	freedom	-0.19513752
-3.9746375	sophomore	-0.098042734
-3.9746375	sophomores	-0.098042734
-3.9746375	4th	-0.098042734
-3.678229	service	-0.098042734
-3.9746375	prime	-0.098042734
-3.340989	purpose	-0.2741563
-3.9746375	Cleaning	-0.098042734
-3.9746375	toilets	-0.098042734
-3.9746375	serving	-0.098042734
-3.9746375	burgers	-0.098042734
-3.2691073	waste	-0.1605951
-3.2691073	think	-0.20801851
-3.2691073	anything	-0.1281937
-3.8506508	argue	-0.098042734
-3.9746375	Maybe	-0.098042734
-3.5348082	serve	-0.098042734
-3.9746375	clean	-0.098042734
-3.8506508	dishes	-0.098042734
-3.9746375	pales	-0.098042734
-3.9746375	international	-0.098042734
-3.5348082	law	-0.14086568
-3.8506508	advanced	-0.098042734
-3.9746375	mechanical	-0.098042734
-3.4271748	focused	-0.23276964
-3.678229	truly	-0.098042734
-3.4271748	why	-0.12131027
-3.2691073	made	-0.098042734
-3.9746375	affordable	-0.098042734
-3.9746375	smart	-0.098042734
-3.9746375	gifted	-0.098042734
-3.8506508	proper	-0.098042734
-3.4271748	reduce	-0.20720947
-3.9746375	firmly	-0.098042734
-3.9746375	encouraged	-0.098042734
-3.678229	reach	-0.098042734
-3.9746375	meaningless	-0.098042734
-3.9746375	unchallenging	-0.098042734
-3.9746375	pointless	-0.098042734
-3.5348082	anyone	-0.098042734
-3.678229	fortunate	-0.098042734
-3.9746375	attend	-0.098042734
-3.8506508	everyone	-0.098042734
-3.5348082	wisely	-0.1522653
-3.678229	moving	-0.17195599
-3.8506508	refrain	-0.21423665
-3.8506508	circle	-0.098042734
-3.8506508	knows	-0.098042734
-3.8506508	precious	-0.098042734
-3.9746375	commodity	-0.098042734
-3.9746375	Consider	-0.098042734
-3.9746375	average	-0.098042734
-3.678229	20	-0.35337758
-3.1054616	hours	-0.22398719
-3.8506508	5	-0.098042734
-3.2074509	days	-0.14504822
-3.5348082	week	-0.118926615
-3.9746375	Getting	-0.098042734
-3.8506508	ready	-0.098042734
-3.9746375	driving	-0.098042734
-3.678229	easily	-0.098042734
-3.5348082	hour	-0.098042734
-3.8506508	each	-0.098042734
-2.9868817	day	-0.19507152
-3.9746375	25	-0.098042734
-3.8506508	lost	-0.098042734
-3.8506508	per	-0.21423665
-3.678229	risk	-0.17195599
-3.8506508	cause	-0.098042734
-3.8506508	added	-0.098042734
-3.8506508	frustration	-0.098042734
-3.9746375	friendly	-0.098042734
-3.8506508	coworkers	-0.098042734
-3.9746375	bound	-0.098042734
-3.9746375	tempting	-0.098042734
-3.9746375	urged	-0.098042734
-3.678229	soon	-0.098042734
-3.8506508	First	-0.17195599
-3.8506508	dependent	-0.098042734
-3.9746375	child	-0.098042734
-3.9746375	rapidly	-0.098042734
-3.9746375	underway	-0.098042734
-3.9746375	Quite	-0.098042734
-3.9746375	moved	-0.098042734
-3.1054616	home	-0.29263094
-3.0229268	responsibility	-0.19561017
-3.9746375	ranging	-0.098042734
-3.9746375	bed	-0.098042734
-3.678229	sure	-0.098042734
-3.8506508	homework	-0.098042734
-3.8506508	completed	-0.098042734
-3.9746375	dormitories	-0.098042734
-3.9746375	breakfast	-0.098042734
-3.678229	lunch	-0.098042734
-3.9746375	dinner	-0.098042734
-3.9746375	never-the-less	-0.098042734
-3.8506508	build	-0.098042734
-3.9746375	identity	-0.098042734
-3.8506508	fve	-0.098042734
-3.678229	mentioned	-0.098042734
-3.9746375	admit	-0.098042734
-3.8506508	seem	-0.098042734
-3.9746375	handle	-0.098042734
-3.340989	person	-0.13679342
-3.9746375	teens	-0.098042734
-3.4271748	early	-0.14086568
-3.9746375	twenties	-0.098042734
-3.8506508	adding	-0.17195599
-3.9746375	unnecessary	-0.098042734
-3.9746375	contrary	-0.098042734
-3.9746375	aforementioned	-0.098042734
-3.8506508	list	-0.21423665
-3.9746375	remuneration	-0.098042734
-3.9746375	satisfaction	-0.098042734
-3.678229	gaining	-0.098042734
-3.340989	independence	-0.12131027
-3.8506508	enormous	-0.098042734
-3.9746375	self-esteem	-0.098042734
-3.8506508	manifest	-0.098042734
-3.9746375	improved	-0.098042734
-3.5348082	growing	-0.274173
-3.8506508	securing	-0.098042734
-3.8506508	dating	-0.098042734
-3.8506508	easier	-0.098042734
-3.8506508	ask	-0.098042734
-3.8506508	view	-0.098042734
-3.678229	big	-0.098042734
-3.8506508	party	-0.098042734
-3.4271748	drinking	-0.14086568
-3.8506508	joining	-0.098042734
-3.4271748	clubs	-0.14086568
-3.9746375	washing	-0.098042734
-3.9746375	My	-0.098042734
-3.9746375	create	-0.098042734
-3.9746375	Australia	-0.098042734
-3.678229	studied	-0.098042734
-3.4271748	University	-0.098042734
-3.9746375	Technology	-0.098042734
-3.9746375	Sydney	-0.098042734
-3.9746375	8,000	-0.098042734
-3.9746375	75	-0.098042734
-3.8506508	%	-0.098042734
-3.8506508	knew	-0.098042734
-3.2691073	companies	-0.098042734
-3.9746375	hire	-0.098042734
-3.8506508	test	-0.098042734
-3.9746375	character	-0.098042734
-3.8506508	positive	-0.098042734
-3.8506508	thing	-0.098042734
-3.2074509	point	-0.1522653
-3.9746375	indirectly	-0.098042734
-3.9746375	cheaper	-0.098042734
-3.9746375	taxpayers	-0.098042734
-3.8506508	summary	-0.098042734
-3.9746375	Overall	-0.098042734
-3.2691073	both	-0.098042734
-3.678229	economy	-0.35337758
-3.8506508	easy	-0.098042734
-3.9746375	hide	-0.098042734
-3.8506508	stay	-0.098042734
-3.9746375	attached	-0.098042734
-3.9746375	backdrop	-0.098042734
-3.9746375	lots	-0.098042734
-3.9746375	bare	-0.098042734
-3.9746375	facts	-0.098042734
-3.678229	obtain	-0.1281937
-3.9746375	converted	-0.098042734
-3.8506508	wisdom	-0.098042734
-3.9746375	broader	-0.098042734
-3.9746375	departments	-0.098042734
-3.9746375	strictly	-0.098042734
-3.8506508	common	-0.098042734
-3.9746375	More	-0.098042734
-3.8506508	break	-0.098042734
-3.678229	--	-0.098042734
-3.9746375	subconscious	-0.098042734
-3.9746375	processes	-0.098042734
-3.9746375	information	-0.098042734
-3.0622365	class	-0.25014567
-3.5348082	concentration	-0.1522653
-3.8506508	connections	-0.098042734
-3.8506508	ca	-0.21423665
-3.9746375	pure	-0.098042734
-3.9746375	association	-0.098042734
-3.9746375	faculty	-0.098042734
-3.8506508	enrich	-0.21423665
-3.8506508	whose	-0.098042734
-3.678229	ultimately	-0.098042734
-3.9746375	remain	-0.098042734
-3.678229	company	-0.17195599
-3.9746375	network	-0.098042734
-3.678229	end	-0.1522653
-3.9746375	needing	-0.098042734
-3.9746375	Student	-0.098042734
-3.9746375	record	-0.098042734
-3.8506508	references	-0.098042734
-3.2691073	individual	-0.115375474
-3.8506508	coursework	-0.098042734
-3.8506508	applications	-0.098042734
-3.9746375	Practical	-0.098042734
-3.8506508	background	-0.098042734
-3.9746375	principles	-0.098042734
-3.0622365	he	-0.16875425
-3.678229	she	-0.14086568
-3.9746375	specific	-0.098042734
-3.8506508	wants	-0.098042734
-3.9746375	Real-world	-0.098042734
-3.5348082	mature	-0.1522653
-3.9746375	functioning	-0.098042734
-3.5348082	members	-0.47831634
-3.8506508	instils	-0.098042734
-3.2691073	discipline	-0.2741563
-3.9746375	fulfill	-0.098042734
-3.678229	expectations	-0.1522653
-3.9746375	abide	-0.098042734
-3.9746375	rules	-0.098042734
-3.9746375	filing	-0.098042734
-3.9746375	correspondence	-0.098042734
-3.9746375	organized	-0.098042734
-3.9746375	attentive	-0.098042734
-3.9746375	details	-0.098042734
-3.5348082	realize	-0.23276964
-3.5348082	co-workers	-0.098042734
-3.678229	rely	-0.35337758
-3.9746375	efficient	-0.098042734
-3.9746375	motivate	-0.098042734
-3.678229	diligent	-0.17195599
-3.9746375	earlier	-0.098042734
-3.2074509	age	-0.18439111
-3.9746375	Second	-0.098042734
-3.9746375	broadens	-0.098042734
-3.4271748	interest	-0.23276964
-3.9746375	opens	-0.098042734
-3.9746375	array	-0.098042734
-3.5348082	possibilities	-0.1522653
-3.678229	yet	-0.098042734
-3.8506508	clear	-0.098042734
-3.9746375	Actual	-0.098042734
-3.5348082	determine	-0.098042734
-3.5348082	kind	-0.47831634
-3.9746375	likes	-0.098042734
-3.9746375	dislikes	-0.098042734
-3.9746375	managerial	-0.098042734
-3.8506508	finance	-0.098042734
-3.678229	human	-0.098042734
-3.5348082	resources	-0.1522653
-3.9746375	interns	-0.098042734
-3.9746375	advertising	-0.098042734
-3.9746375	agency	-0.098042734
-3.678229	discover	-0.098042734
-3.9746375	aptitude	-0.098042734
-3.9746375	graphic	-0.098042734
-3.9746375	design	-0.098042734
-3.9746375	copywriting	-0.098042734
-3.9746375	hands-on	-0.098042734
-3.9746375	richer	-0.098042734
-3.678229	basis	-0.098042734
-3.678229	planning	-0.098042734
-3.9746375	waiting	-0.098042734
-3.340989	around	-0.098042734
-3.9746375	rigors	-0.098042734
-3.9746375	dynamics	-0.098042734
-3.9746375	Usually	-0.098042734
-3.678229	confidence	-0.17195599
-3.9746375	ggreen	-0.098042734
-3.5348082	h	-0.098042734
-3.9746375	familiarize	-0.098042734
-3.8506508	office	-0.098042734
-3.678229	hierarchies	-0.098042734
-3.9746375	situate	-0.098042734
-3.9746375	newcomer	-0.098042734
-3.8506508	guidance	-0.21423665
-3.9746375	mentoring	-0.098042734
-3.9746375	Attending	-0.098042734
-3.9746375	writing	-0.098042734
-3.9746375	essays	-0.098042734
-3.8506508	reports	-0.098042734
-3.8506508	side	-0.098042734
-3.9746375	normally	-0.098042734
-3.678229	taken	-0.1522653
-3.5348082	needed	-0.098042734
-3.8506508	turn	-0.098042734
-3.9746375	sleep	-0.098042734
-3.678229	essential	-0.14086568
-3.2691073	later	-0.22839211
-3.2691073	actually	-0.098042764
-3.9746375	Along	-0.098042734
-3.9746375	career-oriented	-0.098042734
-3.678229	choosing	-0.17195599
-3.9746375	All	-0.098042764
-3.9746375	secretary	-0.098042734
-3.678229	manager	-0.098042734
-3.8506508	treasurer	-0.098042734
-3.9746375	Taking	-0.098042734
-3.9746375	instance	-0.098042734
-3.9746375	plan	-0.098042734
-3.9746375	branch	-0.098042734
-3.678229	budget	-0.098042734
-3.9746375	fd	-0.098042734
-3.9746375	saying	-0.098042734
-3.9746375	inside	-0.098042734
-3.678229	concentrating	-0.35337758
-3.8506508	fact	-0.098042734
-3.4271748	hand	-0.17723958
-3.8506508	loss	-0.21423665
-3.9746375	genuine	-0.098042734
-3.8506508	engaging	-0.21423665
-3.9746375	play	-0.098042734
-3.9746375	instrument	-0.098042734
-3.9746375	sports	-0.098042734
-3.340989	simply	-0.098042764
-3.8506508	hang	-0.21423665
-3.9746375	friend	-0.098042734
-3.678229	developing	-0.098042734
-3.9746375	danger	-0.098042734
-3.9746375	ending	-0.098042734
-3.9746375	materialistic	-0.098042734
-3.9746375	inclined	-0.098042734
-3.9746375	diminished	-0.098042734
-3.9746375	understating	-0.098042734
-2.8413033	our	-0.108908966
-3.9746375	beings	-0.098042734
-3.9746375	...	-0.098042734
-2.6955683	we	-0.20619403
-3.9746375	sooner	-0.098042734
-3.4271748	opinion	-0.1985482
-3.9746375	rush	-0.098042734
-3.8506508	concentrated	-0.098042734
-3.5348082	its	-0.098042734
-3.340989	us	-0.098042764
-3.678229	causes	-0.098042734
-3.9746375	unhappiness	-0.098042734
-3.9746375	love	-0.098042734
-3.9746375	sole	-0.098042734
-3.678229	few	-0.098042734
-3.9746375	bucks	-0.098042734
-3.8506508	distraction	-0.098042734
-3.678229	further	-0.098042734
-3.9746375	cloud	-0.098042734
-3.9746375	tricky	-0.098042734
-3.9746375	monetary	-0.098042734
-3.9746375	enslavement	-0.098042734
-3.4271748	live	-0.098042734
-3.8506508	under	-0.098042734
-3.9746375	span	-0.098042734
-3.9746375	childhood	-0.098042734
-3.9746375	assure	-0.098042734
-3.678229	mental	-0.098042734
-3.9746375	stability	-0.098042734
-3.9746375	Every	-0.098042734
-2.866774	his	-0.13503471
-3.4271748	her	-0.098042764
-3.9746375	No	-0.098042734
-3.9746375	deviation	-0.098042734
-3.678229	allowed	-0.274173
-3.8506508	absolutely	-0.098042734
-3.9746375	executed	-0.098042734
-3.8506508	conditions	-0.098042734
-3.9746375	Studying	-0.098042734
-3.8506508	influence	-0.098042734
-3.678229	sometimes	-0.098042734
-3.9746375	fate	-0.098042734
-3.9746375	Depending	-0.098042734
-3.9746375	destiny	-0.098042734
-3.9746375	entire	-0.098042734
-3.8506508	generations	-0.098042734
-3.8506508	damage	-0.098042734
-3.9746375	irreversible	-0.098042734
-3.9746375	qualified	-0.098042734
-3.9746375	causing	-0.098042734
-3.9746375	nation	-0.098042734
-3.9746375	Even	-0.098042734
-3.8506508	direct	-0.098042734
-3.9746375	wastes	-0.098042734
-3.9746375	production	-0.098042734
-3.678229	above	-0.098042734
-3.8506508	institutions	-0.098042734
-3.9746375	priority	-0.098042734
-3.9746375	agendas	-0.098042734
-3.9746375	excuses	-0.098042734
-3.9746375	delay	-0.098042734
-3.9746375	action	-0.098042734
-3.9746375	accepted	-0.098042734
-3.2074509	right	-0.15792
-3.9746375	assured	-0.098042734
-3.9746375	self-improvement	-0.098042734
-3.9746375	worthwhile	-0.098042734
-3.9746375	serves	-0.098042734
-3.9746375	element	-0.098042734
-3.9746375	preparatory	-0.098042734
-3.5348082	stage	-0.098042734
-3.678229	country	-0.098042734
-3.9746375	Asia	-0.098042734
-3.9746375	whereby	-0.098042734
-3.9746375	obliged	-0.098042734
-3.9746375	self-supporting	-0.098042734
-3.340989	save	-0.18983142
-3.9746375	augment	-0.098042734
-3.8506508	whole	-0.098042734
-3.678229	among	-0.17195599
-3.8506508	youth	-0.17195599
-3.9746375	On	-0.098042734
-3.4271748	his\/her	-0.098042734
-3.9746375	promotes	-0.098042734
-3.9746375	duties	-0.098042734
-3.9746375	assigned	-0.098042734
-3.8506508	virtues	-0.098042734
-3.9746375	hard-work	-0.098042734
-3.9746375	teamwork	-0.098042734
-3.5348082	respect	-0.1522653
-3.9746375	authority	-0.098042734
-3.9746375	Although	-0.098042734
-3.9746375	authorities	-0.098042734
-3.8506508	schools	-0.098042734
-3.340989	local	-0.098042764
-3.9746375	governments	-0.098042734
-3.9746375	proactive	-0.098042734
-3.8506508	setting	-0.098042734
-3.8506508	appropriate	-0.098042734
-3.5348082	policy	-0.098042734
-3.9746375	measures	-0.098042734
-3.8506508	avoid	-0.098042734
-3.9746375	pitfalls	-0.098042734
-3.678229	including	-0.098042734
-3.9746375	exploitation	-0.098042734
-3.9746375	abuse	-0.098042734
-3.9746375	excessive	-0.098042734
-3.9746375	absenteeism	-0.098042734
-3.9746375	gross	-0.098042734
-3.9746375	negligence	-0.098042734
-3.8506508	schooling	-0.098042734
-3.8506508	purposes	-0.098042734
-3.9746375	i	-0.098042734
-3.9746375	attain	-0.098042734
-3.9746375	competency	-0.098042734
-3.8506508	attitude	-0.098042734
-3.8506508	desired	-0.098042734
-3.9746375	expertise	-0.098042734
-3.9746375	ii	-0.098042734
-3.8506508	finish	-0.098042734
-3.4271748	lose	-0.098042764
-3.8506508	sight	-0.21423665
-3.9746375	gains	-0.098042734
-3.678229	four	-0.17195599
-3.9746375	corners	-0.098042734
-3.9746375	classroom	-0.098042734
-3.8506508	Thus	-0.21423665
-3.2691073	balance	-0.098042734
-3.9746375	necessarily	-0.098042734
-3.8506508	points	-0.098042734
-3.8506508	argument	-0.21423665
-3.9746375	unless	-0.098042734
-3.9746375	decision	-0.098042734
-3.9746375	attainment	-0.098042734
-3.8506508	organizational	-0.21423665
-3.8506508	socially	-0.098042734
-3.5348082	current	-0.098042734
-3.9746375	consist	-0.098042734
-3.8506508	mainly	-0.098042734
-3.678229	fast	-0.098042734
-3.9746375	manual	-0.098042734
-3.5348082	invaluable	-0.098042734
-3.9746375	targeted	-0.098042734
-3.9746375	Balancing	-0.098042734
-3.678229	schedules	-0.098042734
-3.9746375	arranging	-0.098042734
-3.8506508	effective	-0.098042734
-3.340989	assist	-0.17195599
-3.4271748	becoming	-0.37108302
-3.5348082	daily	-0.14086568
-3.9746375	presently	-0.098042734
-3.8506508	prepare	-0.098042734
-3.8506508	car	-0.098042734
-3.8506508	post	-0.098042734
-3.678229	careers	-0.21423665
-3.9746375	passed	-0.098042734
-3.8506508	extremely	-0.098042734
-3.9746375	Potential	-0.098042734
-3.9746375	impressed	-0.098042734
-3.9746375	interviews	-0.098042734
-3.8506508	cities	-0.098042734
-3.9746375	socio-economic	-0.098042734
-3.9746375	backgrounds	-0.098042734
-3.9746375	partly	-0.098042734
-3.2691073	complete	-0.12430835
-3.9746375	professionally	-0.098042734
-3.9746375	educated	-0.098042734
-3.678229	contributing	-0.17195599
-3.9746375	prepared	-0.098042734
-3.9746375	challenges	-0.098042734
-3.9746375	ends	-0.098042734
-3.340989	develop	-0.12430835
-3.8506508	stronger	-0.098042734
-3.9746375	When	-0.098042734
-3.9746375	appropriately	-0.098042734
-3.9746375	dressed	-0.098042734
-3.9746375	consequences	-0.098042734
-3.9746375	actions	-0.098042734
-3.9746375	She	-0.098042734
-3.8506508	wait	-0.21423665
-3.9746375	naive	-0.098042734
-3.9746375	mistakes	-0.098042734
-3.678229	critical	-0.098042734
-3.9746375	favor	-0.098042734
-3.8506508	variety	-0.21423665
-3.8506508	classmates	-0.098042734
-3.9746375	maybe	-0.098042734
-3.4271748	together	-0.14086568
-3.8506508	thinking	-0.098042734
-3.9746375	closer	-0.098042734
-3.9746375	along	-0.098042734
-3.9746375	belief	-0.098042734
-3.8506508	recognize	-0.098042734
-3.678229	lectures	-0.17195599
-3.8506508	meetings	-0.098042734
-3.9746375	Otherwise	-0.098042734
-3.9746375	poorer	-0.098042734
-3.9746375	disadvantage	-0.098042734
-3.9746375	compared	-0.098042734
-3.8506508	wealthy	-0.098042734
-3.5348082	pass	-0.098042734
-3.678229	ever	-0.098042734
-3.8506508	experiencing	-0.098042734
-3.678229	regular	-0.098042734
-3.9746375	empathy	-0.098042734
-3.8506508	modern	-0.098042734
-3.9746375	politics	-0.098042734
-3.9746375	justice	-0.098042734
-3.9746375	Universities	-0.098042734
-3.9746375	award	-0.098042734
-3.9746375	credits	-0.098042734
-3.9746375	volunteer	-0.098042734
-3.9746375	all-round	-0.098042734
-3.9746375	count	-0.098042734
-3.5348082	towards	-0.098042734
-3.9746375	degrees	-0.098042734
-3.9746375	School	-0.098042734
-3.678229	expensive	-0.098042734
-3.9746375	costly	-0.098042734
-3.9746375	assisting	-0.098042734
-3.678229	busy	-0.098042734
-3.9746375	professionals	-0.098042734
-3.9746375	sources	-0.098042734
-3.8506508	doubt	-0.098042734
-3.2691073	spent	-0.14589529
-3.9746375	figuring	-0.098042734
-3.678229	personally	-0.098042734
-3.9746375	usual	-0.098042734
-3.4271748	form	-0.37108302
-3.9746375	profession	-0.098042734
-3.8506508	nice	-0.098042734
-3.9746375	speed	-0.098042734
-3.9746375	certified	-0.098042734
-3.8506508	receive	-0.098042734
-3.8506508	faster	-0.098042734
-3.9746375	raise	-0.098042734
-3.5348082	children	-0.1605951
-3.4271748	choose	-0.18983142
-3.9746375	interact	-0.098042734
-3.678229	community	-0.098042734
-3.9746375	epeople-skills	-0.098042734
-3.0622365	had	-0.22503476
-3.9746375	14	-0.098042734
-3.678229	old	-0.17195599
-3.9746375	pharmacy	-0.098042734
-3.9746375	capable	-0.098042734
-3.8506508	appreciation	-0.21423665
-3.4271748	required	-0.18837766
-3.9746375	interacting	-0.098042734
-3.5348082	public	-0.14086568
-3.9746375	juggle	-0.098042734
-3.9746375	surprised	-0.098042734
-3.9746375	came	-0.098042734
-3.8506508	bring	-0.098042734
-3.9746375	maturity	-0.098042734
-3.678229	currently	-0.098042734
-3.5348082	purely	-0.098042734
-3.9746375	Hence	-0.098042734
-3.8506508	1	-0.098042734
-3.9746375	interesting	-0.098042734
-3.9746375	replacement	-0.098042734
-3.678229	2	-0.098042734
-3.340989	everything	-0.098042734
-3.5348082	given	-0.098042734
-3.678229	3	-0.098042734
-3.9746375	relates	-0.098042734
-3.9746375	Sometimes	-0.098042734
-3.9746375	salary	-0.098042734
-3.9746375	resume	-0.098042734
-3.8506508	4	-0.098042734
-3.9746375	mentors	-0.098042734
-3.9746375	Thank	-0.098042734
-3.9746375	explain	-0.098042734
-3.9746375	Reason	-0.098042734
-3.9746375	survive	-0.098042734
-3.9746375	With	-0.098042734
-3.9746375	struggle	-0.098042734
-3.9746375	continual	-0.098042734
-3.8506508	excellent	-0.098042734
-3.340989	long	-0.098042764
-3.9746375	length	-0.098042734
-3.8506508	vacation	-0.098042734
-3.9746375	Which	-0.098042734
-3.8506508	greatly	-0.098042734
-3.8506508	wasted	-0.21423665
-3.9746375	lazy	-0.098042734
-3.8506508	unproductive	-0.098042734
-3.9746375	Or	-0.098042734
-3.8506508	nights	-0.098042734
-3.9746375	travel	-0.098042734
-3.9746375	persons	-0.098042734
-3.4271748	growth	-0.14086568
-3.9746375	multicultural	-0.098042734
-3.678229	off	-0.098042734
-3.9746375	eIt	-0.098042734
-3.9746375	employability	-0.098042734
-3.9746375	field\/industry	-0.098042734
-3.9746375	ereal	-0.098042734
-3.9746375	suited	-0.098042734
-3.5348082	look	-0.14086568
-3.8506508	path	-0.098042734
-3.9746375	homework\/assignments	-0.098042734
-3.9746375	At	-0.098042734
-3.9746375	input	-0.098042734
-3.5348082	using	-0.098042734
-3.8506508	initiative	-0.098042734
-3.9746375	solving	-0.098042734
-3.9746375	communication	-0.098042734
-3.8506508	customer	-0.098042734
-3.9746375	uniforms	-0.098042734
-3.9746375	Being	-0.098042734
-3.8506508	brings	-0.098042734
-3.9746375	pointed	-0.098042734
-3.9746375	real-world	-0.098042734
-3.9746375	complement	-0.098042734
-3.9746375	Also	-0.098042734
-3.2074509	spending	-0.12430835
-3.5348082	certainly	-0.098042734
-3.678229	welcome	-0.098042734
-3.4271748	choice	-0.098042734
-3.9746375	complements	-0.098042734
-3.9746375	looking	-0.098042734
-3.4271748	within	-0.14086568
-3.8506508	lab	-0.098042734
-3.678229	research	-0.098042734
-3.9746375	assistant	-0.098042734
-3.8506508	professor	-0.098042734
-3.9746375	well-paying	-0.098042734
-3.9746375	conveniently	-0.098042734
-3.9746375	located	-0.098042734
-3.9746375	content	-0.098042734
-3.9746375	desirable	-0.098042734
-3.678229	interested	-0.35337758
-3.9746375	although	-0.098042734
-3.9746375	scenario	-0.098042734
-3.9746375	leads	-0.098042734
-3.9746375	existentially	-0.098042734
-3.9746375	themed	-0.098042734
-3.9746375	questions	-0.098042734
-3.9746375	Regardless	-0.098042734
-3.8506508	profit	-0.098042734
-3.9746375	prioritize	-0.098042734
-3.8506508	merit	-0.098042734
-3.9746375	significant	-0.098042734
-3.678229	expense	-0.098042734
-3.9746375	capital	-0.098042734
-3.8506508	thereby	-0.098042734
-3.8506508	cover	-0.098042734
-3.9746375	bank	-0.098042734
-3.678229	loan	-0.098042734
-3.9746375	mortgaging	-0.098042734
-3.9746375	house	-0.098042734
-3.678229	puts	-0.17195599
-3.9746375	strain	-0.098042734
-3.9746375	financing	-0.098042734
-3.5348082	materials	-0.14086568
-3.9746375	reducing	-0.098042734
-3.9746375	pressure	-0.098042734
-3.9746375	encouraging	-0.098042734
-3.5348082	large	-0.098042734
-3.9746375	percentage	-0.098042734
-3.9746375	shoppers	-0.098042734
-3.9746375	notice	-0.098042734
-3.8506508	changes	-0.098042734
-3.9746375	fashion	-0.098042734
-3.9746375	technology	-0.098042734
-3.678229	buy	-0.098042734
-3.9746375	latest	-0.098042734
-3.9746375	products	-0.098042734
-3.9746375	reviving	-0.098042734
-3.9746375	shops	-0.098042734
-3.678229	low	-0.098042734
-3.9746375	shop	-0.098042734
-3.9746375	owners	-0.098042734
-3.8506508	onto	-0.098042734
-3.153469	me	-0.12131027
-3.8506508	seems	-0.17195599
-3.8506508	carry	-0.098042734
-3.9746375	task	-0.098042734
-3.5348082	goal	-0.098042734
-3.678229	rewarding	-0.17195599
-3.9746375	mention	-0.098042734
-3.9746375	Basic	-0.098042734
-3.9746375	Looking	-0.098042734
-3.8506508	seeing	-0.098042734
-3.9746375	payback	-0.098042734
-3.5348082	over	-0.098042734
-3.8506508	everyday	-0.098042734
-3.9746375	irresponsible	-0.098042734
-3.9746375	breakdown	-0.098042734
-3.678229	economic	-0.098042734
-3.9746375	happing	-0.098042734
-3.9746375	Using	-0.098042734
-3.9746375	false	-0.098042734
-3.9746375	card	-0.098042734
-3.9746375	constantly	-0.098042734
-3.9746375	pushing	-0.098042734
-3.8506508	care	-0.21423665
-3.9746375	bill	-0.098042734
-3.5348082	banned	-0.1281937
-3.5348082	number	-0.47831634
-3.8506508	goes	-0.098042734
-3.8506508	didn	-0.21423665
-3.9746375	dime	-0.098042734
-3.9746375	tuitions	-0.098042734
-3.8506508	summer	-0.098042734
-3.9746375	vacations	-0.098042734
-3.9746375	summers	-0.098042734
-3.9746375	Furthermore	-0.098042734
-3.5348082	schedule	-0.098042734
-3.9746375	got	-0.098042734
-3.9746375	graduating	-0.098042734
-3.678229	already	-0.098042734
-3.9746375	experienced	-0.098042734
-3.9746375	requirements	-0.098042734
-3.8506508	c	-0.098042734
-3.8506508	seen	-0.098042734
-3.5348082	extra-curricular	-0.274173
-3.9746375	hiring	-0.098042734
-3.9746375	bubble	-0.098042734
-3.678229	leaving	-0.098042734
-3.8506508	head	-0.098042734
-3.5348082	creating	-0.1522653
-3.9746375	failures	-0.098042734
-3.9746375	realistic	-0.098042734
-3.9746375	adjusting	-0.098042734
-3.9746375	\/	-0.098042734
-3.4271748	employees	-0.098042734
-3.9746375	wont	-0.098042734
-3.9746375	burn	-0.098042734
-3.9746375	gauge	-0.098042734
-3.9746375	assessing	-0.098042734
-3.9746375	multi-task	-0.098042734
-3.9746375	grade	-0.098042734
-3.9746375	averages	-0.098042734
-3.9746375	devised	-0.098042734
-3.9746375	formula	-0.098042734
-3.9746375	feels	-0.098042734
-3.9746375	excels	-0.098042734
-3.9746375	assignment	-0.098042734
-3.8506508	Finally	-0.21423665
-3.678229	general	-0.098042734
-3.9746375	Idle	-0.098042734
-3.9746375	minds	-0.098042734
-3.9746375	deserves	-0.098042734
-3.9746375	needy	-0.098042734
-3.9746375	face	-0.098042734
-3.678229	difficulties	-0.098042734
-3.9746375	Incomes	-0.098042734
-3.9746375	necessities	-0.098042734
-3.8506508	purchase	-0.098042734
-3.8506508	dedication	-0.098042734
-3.9746375	unreasonable	-0.098042734
-3.9746375	inherent	-0.098042734
-3.9746375	structures	-0.098042734
-3.9746375	exist	-0.098042734
-3.9746375	Early	-0.098042734
-3.8506508	formal	-0.098042734
-3.9746375	adjust	-0.098042734
-3.8506508	demand	-0.098042734
-3.9746375	involvement	-0.098042734
-3.9746375	Both	-0.098042734
-3.8506508	private	-0.098042734
-3.8506508	utmost	-0.098042734
-3.8506508	New	-0.21423665
-3.9746375	Zealand	-0.098042734
-3.9746375	enabled	-0.098042734
-3.9746375	continued	-0.098042734
-3.5348082	tertiary	-0.14086568
-3.9746375	monthly	-0.098042734
-3.9746375	housing	-0.098042734
-3.9746375	teenagers	-0.098042734
-3.9746375	move	-0.098042734
-3.9746375	spread	-0.098042734
-3.9746375	wings	-0.098042734
-3.9746375	Ultimately	-0.098042734
-3.678229	wanted	-0.098042734
-3.9746375	prove	-0.098042734
-3.9746375	yourself	-0.098042734
-3.9746375	Naturally	-0.098042734
-3.678229	entertainment	-0.17195599
-3.9746375	sponsored	-0.098042734
-3.9746375	covered	-0.098042734
-3.9746375	wasn	-0.098042734
-3.8506508	left	-0.098042734
-3.9746375	During	-0.098042734
-3.9746375	gas	-0.098042734
-3.9746375	station	-0.098042734
-3.8506508	attendant	-0.21423665
-3.9746375	kitchen	-0.098042734
-3.8506508	video	-0.098042734
-3.9746375	rental	-0.098042734
-3.9746375	clerk	-0.098042734
-3.9746375	parking	-0.098042734
-3.5348082	finally	-0.098042734
-3.9746375	porter	-0.098042734
-3.9746375	provided	-0.098042734
-3.9746375	communicative	-0.098042734
-3.9746375	organize	-0.098042734
-3.9746375	efficiently	-0.098042734
-3.678229	opinions	-0.17195599
-3.8506508	hands	-0.21423665
-3.8506508	textbook	-0.21423665
-3.9746375	selected	-0.098042734
-3.9746375	programs	-0.098042734
-3.9746375	seeking	-0.098042734
-3.9746375	unsure	-0.098042734
-3.9746375	undecided	-0.098042734
-3.9746375	direction	-0.098042734
-3.9746375	options	-0.098042734
-3.9746375	brighter	-0.098042734
-3.9746375	Third	-0.098042734
-3.9746375	inspire	-0.098042734
-3.9746375	excel	-0.098042734
-3.9746375	senior	-0.098042734
-3.9746375	Work	-0.098042734
-3.9746375	comprehend	-0.098042734
-3.9746375	Based	-0.098042734
-3.9746375	discovering	-0.098042734
-3.9746375	lifetime	-0.098042734
-3.9746375	helping	-0.098042734
-3.9746375	unmotivated	-0.098042734
-3.9746375	sadder	-0.098042734
-3.9746375	story	-0.098042734
-3.678229	finished	-0.098042734
-3.9746375	16	-0.098042734
-3.9746375	run	-0.098042734
-3.8506508	challenge	-0.098042734
-3.9746375	tried	-0.098042734
-3.4271748	dealing	-0.37108302
-3.9746375	boss	-0.098042734
-3.9746375	Those	-0.098042734
-3.9746375	Parents	-0.098042734
-3.9746375	Doing	-0.098042734
-3.9746375	shows	-0.098042734
-3.9746375	longer	-0.098042734
-3.8506508	ourselves	-0.098042734
-3.9746375	taught	-0.098042734
-3.9746375	special	-0.098042734
-3.9746375	colleagues	-0.098042734
-3.9746375	grow	-0.098042734
-3.9746375	quicker	-0.098042734
-3.9746375	glife	-0.098042734
-3.678229	kids	-0.098042734
-3.9746375	correct	-0.098042734
-3.9746375	Throughout	-0.098042734
-3.9746375	grandparents	-0.098042734
-3.9746375	youngsters	-0.098042734
-3.9746375	consumerist	-0.098042734
-3.9746375	cell	-0.098042734
-3.9746375	phones	-0.098042734
-3.9746375	funded	-0.098042734
-3.9746375	possession	-0.098042734
-3.9746375	games	-0.098042734
-3.8506508	clothes	-0.098042734
-3.8506508	wage	-0.098042734
-3.8506508	communicating	-0.098042734
-3.5348082	groups	-0.098042734
-3.8506508	etiquette	-0.098042734
-3.9746375	spoken	-0.098042734
-3.9746375	language	-0.098042734
-3.678229	wish	-0.274173
-3.9746375	teacher	-0.098042734
-3.9746375	nursery	-0.098042734
-3.9746375	cram	-0.098042734
-3.9746375	tourism	-0.098042734
-3.9746375	hotels	-0.098042734
-3.9746375	tour	-0.098042734
-3.9746375	guides	-0.098042734
-3.678229	weekends	-0.098042734
-3.9746375	challenging	-0.098042734
-3.9746375	receiving	-0.098042734
-3.8506508	thousands	-0.21423665
-3.9746375	key	-0.098042734
-3.9746375	leading	-0.098042734
-3.9746375	join	-0.098042734
-3.678229	attending	-0.1522653
-3.678229	obtaining	-0.17195599
-3.9746375	time-management	-0.098042734
-3.9746375	semi-regular	-0.098042734
-3.9746375	regimen	-0.098042734
-3.9746375	oppressive	-0.098042734
-3.9746375	thought-controlling	-0.098042734
-3.9746375	atmosphere	-0.098042734
-3.9746375	accustomed	-0.098042734
-3.9746375	shock	-0.098042734
-3.9746375	cloistered	-0.098042734
-3.9746375	fascinating	-0.098042734
-3.8506508	exists	-0.098042734
-3.9746375	recommended	-0.098042734
-3.9746375	norms	-0.098042734
-3.9746375	contemporary	-0.098042734
-3.678229	thought	-0.098042734
-3.9746375	patterns	-0.098042734
-3.9746375	apply	-0.098042734
-3.9746375	mocked	-0.098042734
-3.9746375	absurd	-0.098042734
-3.9746375	occupying	-0.098042734
-3.9746375	oneself	-0.098042734
-3.678229	activity	-0.098042734
-3.9746375	restricts	-0.098042734
-3.4271748	habits	-0.098042734
-3.9746375	deleterious	-0.098042734
-3.9746375	Said	-0.098042734
-3.9746375	extended	-0.098042734
-3.9746375	periods	-0.098042734
-3.9746375	game	-0.098042734
-3.9746375	playing	-0.098042734
-3.9746375	lounging	-0.098042734
-3.9746375	sofa	-0.098042734
-3.9746375	watching	-0.098042734
-3.9746375	daytime	-0.098042734
-3.9746375	television	-0.098042734
-3.9746375	indulging	-0.098042734
-3.9746375	repeated	-0.098042734
-3.9746375	bouts	-0.098042734
-3.9746375	binge	-0.098042734
-3.9746375	equally	-0.098042734
-3.9746375	dissolute	-0.098042734
-3.9746375	obsessive	-0.098042734
-3.9746375	devotion	-0.098042734
-3.678229	online	-0.098042734
-3.9746375	fleshpots	-0.098042734
-3.9746375	promising	-0.098042734
-3.8506508	sexual	-0.098042734
-3.9746375	release	-0.098042734
-3.9746375	exchange	-0.098042734
-3.9746375	split	-0.098042734
-3.9746375	behooves	-0.098042734
-3.9746375	arrange	-0.098042734
-3.9746375	bear	-0.098042734
-3.9746375	mentioning	-0.098042734
-3.9746375	One	-0.098042734
-3.9746375	REAL	-0.098042734
-3.9746375	Nor	-0.098042734
-3.678229	efforts	-0.1522653
-3.9746375	life-lesson	-0.098042734
-3.9746375	tie-in	-0.098042734
-3.9746375	failure	-0.098042734
-3.9746375	disciplines	-0.098042734
-3.9746375	achieve	-0.098042734
-3.9746375	greatest	-0.098042734
-3.9746375	assets	-0.098042734
-3.9746375	control	-0.098042734
-3.8506508	desires	-0.21423665
-3.9746375	depend	-0.098042734
-3.9746375	track	-0.098042734
-3.8506508	spoiled	-0.098042734
-3.678229	paid	-0.17195599
-3.9746375	much-needed	-0.098042734
-3.9746375	self	-0.098042734
-3.8506508	transitional	-0.21423665
-3.9746375	dependence	-0.098042734
-3.678229	shall	-0.098042734
-3.9746375	claim	-0.098042734
-3.9746375	domestic	-0.098042734
-3.9746375	front	-0.098042734
-3.9746375	leaves	-0.098042734
-3.9746375	security	-0.098042734
-3.9746375	unit	-0.098042734
-3.678229	begins	-0.17195599
-3.9746375	strike	-0.098042734
-3.9746375	course-load	-0.098042734
-3.8506508	thoughts	-0.21423665
-3.9746375	pecuniary	-0.098042734
-3.8506508	changing	-0.098042734
-3.8506508	hobbies	-0.098042734
-3.9746375	assert	-0.098042734
-3.9746375	starting	-0.098042734
-3.9746375	Whether	-0.098042734
-3.9746375	vary	-0.098042734
-3.9746375	courting	-0.098042734
-3.8506508	meeting	-0.098042734
-3.9746375	viable	-0.098042734
-3.9746375	whom	-0.098042734
-3.9746375	Independent	-0.098042734
-3.8506508	supporting	-0.098042734
-3.9746375	stated	-0.098042734
-3.9746375	fresh	-0.098042734
-3.9746375	firm	-0.098042734
-3.9746375	superiors	-0.098042734
-3.9746375	life-skill	-0.098042734
-3.9746375	enhancements	-0.098042734
-3.9746375	Searching	-0.098042734
-3.9746375	filling	-0.098042734
-3.9746375	interview	-0.098042734
-3.9746375	joys	-0.098042734
-3.9746375	pain	-0.098042734
-3.9746375	rejected	-0.098042734
-3.9746375	cooperation	-0.098042734
-3.9746375	humble	-0.098042734
-3.9746375	relieve	-0.098042734
-3.9746375	funding	-0.098042734
-3.8506508	involved	-0.21423665
-3.9746375	emphatically	-0.098042734
-3.9746375	style	-0.098042734
-3.8506508	individuals	-0.098042734
-3.9746375	adulthood	-0.098042734
-3.9746375	indispensable	-0.098042734
-3.9746375	recommend	-0.098042734
-3.9746375	opportune	-0.098042734
-3.9746375	men	-0.098042734
-3.8506508	women	-0.098042734
-3.9746375	THEIR	-0.098042734
-3.9746375	interpretation	-0.098042734
-3.9746375	wonderful	-0.098042734
-3.9746375	meaning	-0.098042734
-3.8506508	applied	-0.098042734
-3.9746375	exactly	-0.098042734
-3.9746375	Dairy	-0.098042734
-3.9746375	Queens	-0.098042734
-3.9746375	Well	-0.098042734
-3.8506508	handling	-0.098042734
-3.9746375	accounts	-0.098042734
-3.9746375	add	-0.098042734
-3.8506508	comes	-0.098042734
-3.8506508	indeed	-0.098042734
-3.9746375	reduces	-0.098042734
-3.9746375	note	-0.098042734
-3.8506508	throughout	-0.098042734
-3.9746375	Interestingly	-0.098042734
-3.9746375	exercised	-0.098042734
-3.678229	greater	-0.098042734
-3.9746375	defray	-0.098042734
-3.9746375	ever-increasing	-0.098042734
-3.9746375	After	-0.098042734
-3.8506508	creates	-0.098042734
-3.9746375	burdens	-0.098042734
-3.8506508	newly	-0.098042734
-3.9746375	minted	-0.098042734
-3.9746375	Reducing	-0.098042734
-3.9746375	eliminating	-0.098042734
-3.9746375	state	-0.098042734
-3.8506508	population	-0.098042734
-3.9746375	contact	-0.098042734
-3.9746375	walks	-0.098042734
-3.9746375	myriad	-0.098042734
-3.9746375	cwhich	-0.098042734
-3.9746375	isn	-0.098042734
-3.9746375	couldn	-0.098042734
-3.9746375	shocked	-0.098042734
-3.9746375	perfected	-0.098042734
-3.9746375	begging	-0.098042734
-3.8506508	outright	-0.098042734
-3.9746375	demanding	-0.098042734
-3.9746375	shell	-0.098042734
-3.9746375	outrageous	-0.098042734
-3.8506508	amounts	-0.21423665
-3.8506508	nothing	-0.098042734
-3.8506508	wrong	-0.098042734
-3.9746375	ski	-0.098042734
-3.9746375	trips	-0.098042734
-3.9746375	traveling	-0.098042734
-3.8506508	enjoying	-0.098042734
-3.678229	probably	-0.17195599
-3.9746375	dollars	-0.098042734
-3.9746375	namely	-0.098042734
-3.9746375	consequently	-0.098042734
-3.8506508	institutes	-0.098042734
-3.8506508	household	-0.098042734
-3.9746375	parental	-0.098042734
-3.9746375	accommodation	-0.098042734
-3.9746375	financed	-0.098042734
-3.9746375	guardians	-0.098042734
-3.9746375	sum	-0.098042734
-3.9746375	subsidized	-0.098042734
-3.8506508	third	-0.098042734
-3.9746375	adequate	-0.098042734
-3.9746375	expenditure	-0.098042734
-3.9746375	yields	-0.098042734
-3.8506508	double	-0.098042734
-3.9746375	bonus	-0.098042734
-3.9746375	character-building	-0.098042734
-3.9746375	aspect	-0.098042734
-3.9746375	influences	-0.098042734
-3.9746375	younger	-0.098042734
-3.9746375	earners	-0.098042734
-3.9746375	professions	-0.098042734
-3.9746375	terms	-0.098042734
-3.9746375	diligence	-0.098042734
-3.678229	said	-0.17195599
-3.8506508	beginning	-0.098042734
-3.8506508	relief	-0.098042734
-3.5348082	due	-0.47831634
-3.9746375	shown	-0.098042734
-3.9746375	traumatizing	-0.098042734
-3.9746375	totally	-0.098042734
-3.9746375	pretty	-0.098042734
-3.9746375	similarities	-0.098042734
-3.678229	essentially	-0.098042734
-3.9746375	sit	-0.098042734
-3.9746375	quietly	-0.098042734
-3.9746375	feet	-0.098042734
-3.9746375	spontaneous	-0.098042734
-3.9746375	feedback	-0.098042734
-3.9746375	aren	-0.098042734
-3.9746375	dimension	-0.098042734
-3.9746375	perform	-0.098042734
-3.9746375	somewhat	-0.098042734
-3.9746375	lacking	-0.098042734
-3.8506508	anyway	-0.098042734
-3.8506508	remember	-0.098042734
-3.9746375	paycheck	-0.098042734
-3.9746375	impression	-0.098042734
-3.9746375	gave	-0.098042734
-3.9746375	seemed	-0.098042734
-3.9746375	peculiar	-0.098042734
-3.9746375	sort	-0.098042734
-3.9746375	cautious	-0.098042734
-3.9746375	apt	-0.098042734
-3.8506508	Yet	-0.098042734
-3.9746375	guess	-0.098042734
-3.8506508	primary	-0.21423665
-3.9746375	Anything	-0.098042734
-3.9746375	membership	-0.098042734
-3.9746375	supplementary	-0.098042734
-3.9746375	Extra	-0.098042734
-3.9746375	fast-food	-0.098042734
-3.9746375	hopes	-0.098042734
-3.9746375	computer	-0.098042734
-3.9746375	programmer	-0.098042734
-3.8506508	burger	-0.098042734
-3.9746375	flipping	-0.098042734
-3.9746375	decidedly	-0.098042734
-3.4271748	negative	-0.14086568
-3.9746375	first-year	-0.098042734
-3.9746375	stretched	-0.098042734
-3.9746375	thin	-0.098042734
-3.9746375	college-level	-0.098042734
-3.8506508	negligible	-0.098042734
-3.9746375	fine	-0.098042734
-3.9746375	take-up	-0.098042734
-3.8506508	solely	-0.098042734
-3.8506508	'	-0.098042734
-3.9746375	discretion	-0.098042734
-3.9746375	sharpen	-0.098042734
-3.9746375	in-class	-0.098042734
-3.9746375	supplemented	-0.098042734
-3.8506508	experiments	-0.21423665
-3.9746375	casework	-0.098042734
-3.8506508	virtually	-0.098042734
-3.8506508	impossible	-0.21423665
-3.9746375	heavy	-0.098042734
-3.9746375	detriment	-0.098042734
-3.8506508	physical	-0.098042734
-2.9536004	health	-0.1744344
-3.9746375	Everyone	-0.098042734
-3.9746375	applies	-0.098042734
-3.9746375	extracurricular	-0.098042734
-3.9746375	What	-0.098042734
-3.9746375	picking	-0.098042734
-3.5348082	healthy	-0.098042734
-3.9746375	devoting	-0.098042734
-3.9746375	exercising	-0.098042734
-3.8506508	recreational	-0.098042734
-3.9746375	resumes	-0.098042734
-3.9746375	well-rounded	-0.098042734
-3.9746375	introduced	-0.098042734
-3.9746375	tedious	-0.098042734
-3.5348082	mind	-0.098042734
-3.9746375	curious	-0.098042734
-3.9746375	phase	-0.098042734
-3.9746375	encountering	-0.098042734
-3.9746375	share	-0.098042734
-3.9746375	swimming	-0.098042734
-3.9746375	chemistry	-0.098042734
-3.9746375	light	-0.098042734
-3.9746375	bulb	-0.098042734
-3.9746375	cherished	-0.098042734
-3.8506508	miss	-0.098042734
-3.5348082	ideas	-0.1522653
-3.9746375	academics	-0.098042734
-3.9746375	dormitory	-0.098042734
-3.8506508	offered	-0.098042734
-3.678229	exposed	-0.35337758
-3.9746375	group	-0.098042734
-3.9746375	peers	-0.098042734
-3.9746375	Living	-0.098042734
-3.9746375	sharing	-0.098042734
-3.8506508	dorm	-0.098042734
-3.9746375	permanent	-0.098042734
-3.9746375	bond	-0.098042734
-3.678229	behind	-0.098042734
-3.8506508	won	-0.098042734
-3.9746375	`	-0.098042734
-3.9746375	t	-0.098042734
-3.9746375	participate	-0.098042734
-3.9746375	awareness	-0.098042734
-3.9746375	worried	-0.098042734
-3.9746375	Personally	-0.098042734
-3.9746375	terribly	-0.098042734
-3.9746375	starving	-0.098042734
-3.9746375	deem	-0.098042734
-3.8506508	dollar	-0.098042734
-3.9746375	Don	-0.098042734
-3.678229	40	-0.098042734
-3.9746375	45	-0.098042734
-3.8506508	exams	-0.098042734
-3.9746375	clicks	-0.098042734
-3.9746375	drugs	-0.098042734
-3.9746375	rejection	-0.098042734
-3.9746375	thrown	-0.098042734
-3.9746375	dogs	-0.098042734
-3.9746375	remainder	-0.098042734
-3.9746375	paths	-0.098042734
-3.8506508	distracting	-0.098042734
-3.9746375	original	-0.098042734
-3.9746375	decides	-0.098042734
-3.9746375	deter	-0.098042734
-3.9746375	he\/she	-0.098042734
-3.9746375	energies	-0.098042734
-3.9746375	conducive	-0.098042734
-3.9746375	decisions	-0.098042734
-3.9746375	open	-0.098042734
-3.9746375	Failure	-0.098042734
-3.8506508	larger	-0.098042734
-3.9746375	possibility	-0.098042734
-3.9746375	administration	-0.098042734
-3.9746375	treating	-0.098042734
-3.9746375	Consequently	-0.098042734
-3.9746375	poses	-0.098042734
-3.9746375	threat	-0.098042734
-3.9746375	Money	-0.098042734
-3.9746375	distracter	-0.098042734
-3.9746375	boils	-0.098042734
-3.678229	down	-0.17195599
-3.9746375	networking	-0.098042734
-3.9746375	landing	-0.098042734
-3.9746375	ideal	-0.098042734
-3.5348082	properly	-0.098042734
-3.9746375	Training	-0.098042734
-3.9746375	train	-0.098042734
-3.9746375	temporary	-0.098042734
-3.8506508	pursuit	-0.21423665
-3.9746375	Any	-0.098042734
-3.9746375	lay	-0.098042734
-3.9746375	forgo	-0.098042734
-3.9746375	physically	-0.098042734
-3.9746375	forms	-0.098042734
-3.8506508	exhaustion	-0.098042734
-3.9746375	interferes	-0.098042734
-3.9746375	offering	-0.098042734
-3.9746375	weighed	-0.098042734
-3.9746375	crisis	-0.098042734
-3.8506508	middle	-0.098042734
-3.9746375	aged	-0.098042734
-3.9746375	couples	-0.098042734
-3.9746375	elderly	-0.098042734
-3.678229	heavily	-0.098042734
-3.9746375	severely	-0.098042734
-3.9746375	disparate	-0.098042734
-3.9746375	Currently	-0.098042734
-3.9746375	Why	-0.098042734
-3.9746375	dropout	-0.098042734
-3.9746375	losing	-0.098042734
-3.9746375	trapped	-0.098042734
-3.9746375	image	-0.098042734
-3.9746375	goods	-0.098042734
-3.9746375	exciting	-0.098042734
-3.8506508	versus	-0.098042734
-3.9746375	boring	-0.098042734
-3.9746375	uninteresting	-0.098042734
-3.9746375	Communication	-0.098042734
-3.9746375	media	-0.098042734
-3.9746375	typical	-0.098042734
-3.8506508	smaller	-0.098042734
-3.8506508	possibly	-0.098042734
-3.9746375	gather	-0.098042734
-3.8506508	seek	-0.098042734
-3.8506508	establishments	-0.098042734
-3.8506508	bars	-0.098042734
-3.8506508	nightclubs	-0.098042734
-3.8506508	obvious	-0.098042734
-3.9746375	attracted	-0.098042734
-3.8506508	lucrative	-0.098042734
-3.9746375	tips	-0.098042734
-3.8506508	Las	-0.21423665
-3.9746375	Vegas	-0.098042734
-3.9746375	casino	-0.098042734
-3.9746375	mesmerized	-0.098042734
-3.9746375	winning	-0.098042734
-3.9746375	tables	-0.098042734
-3.9746375	nationwide	-0.098042734
-3.9746375	boom	-0.098042734
-3.8506508	Texas	-0.21423665
-3.9746375	Hold	-0.098042734
-3.9746375	eEm	-0.098042734
-3.9746375	Poker	-0.098042734
-3.8506508	North	-0.21423665
-3.9746375	Recently	-0.098042734
-3.678229	poker	-0.098042734
-3.8506508	players	-0.098042734
-3.9746375	diploma	-0.098042734
-3.8506508	popular	-0.098042734
-3.9746375	evolved	-0.098042734
-3.9746375	skilled	-0.098042734
-3.9746375	luck	-0.098042734
-3.8506508	prize	-0.21423665
-3.9746375	trend	-0.098042734
-3.9746375	swept	-0.098042734
-3.9746375	continues	-0.098042734
-3.9746375	Playing	-0.098042734
-3.9746375	addictive	-0.098042734
-3.9746375	drug	-0.098042734
-3.9746375	You	-0.098042734
-3.9746375	access	-0.098042734
-3.9746375	24	-0.098042734
-3.8506508	win	-0.098042734
-3.9746375	substantial	-0.098042734
-3.9746375	prizes	-0.098042734
-3.9746375	tournament	-0.098042734
-3.9746375	grand	-0.098042734
-3.9746375	incomplete	-0.098042734
-3.9746375	Assuming	-0.098042734
-3.9746375	worry	-0.098042734
-3.9746375	invest	-0.098042734
-3.9746375	respond	-0.098042734
-3.9746375	proud	-0.098042734
-3.9746375	plainly	-0.098042734
-3.9746375	divided	-0.098042734
-3.9746375	Troubles	-0.098042734
-3.8506508	goals	-0.098042734
-3.9746375	established	-0.098042734
-3.9746375	applying	-0.098042734
-3.9746375	brother	-0.098042734
-3.8506508	dropped	-0.098042734
-3.9746375	Northeastern	-0.098042734
-3.9746375	Massachusetts	-0.098042734
-3.9746375	majoring	-0.098042734
-3.9746375	physics	-0.098042734
-3.9746375	Disney	-0.098042734
-3.9746375	holiday	-0.098042734
-3.9746375	chances	-0.098042734
-3.678229	partying	-0.098042734
-3.9746375	serious	-0.098042734
-3.9746375	budgeted	-0.098042734
-3.9746375	stem	-0.098042734
-3.9746375	funds	-0.098042734
-3.9746375	100	-0.098042734
-3.9746375	distracts	-0.098042734
-3.9746375	reasonable	-0.098042734
-3.153469	restaurants	-0.16573042
-3.9746375	whenever	-0.098042734
-3.9746375	vicious	-0.098042734
-3.9746375	postpone	-0.098042734
-3.9746375	greal	-0.098042734
-3.9746375	housework	-0.098042734
-3.9746375	chores	-0.098042734
-3.9746375	Governments	-0.098042734
-3.4271748	ban	-0.3119509
-3.9746375	employ	-0.098042734
-3.9746375	Advising	-0.098042734
-3.9746375	possess	-0.098042734
-3.9746375	Mammon	-0.098042734
-3.9746375	glittering	-0.098042734
-3.9746375	bounty	-0.098042734
-3.9746375	wrong-headed	-0.098042734
-3.9746375	short-sighted	-0.098042734
-3.9746375	Anyone	-0.098042734
-3.9746375	known	-0.098042734
-3.9746375	appreciates	-0.098042734
-3.9746375	acquisition	-0.098042734
-3.9746375	Interrupting	-0.098042734
-3.9746375	headlong	-0.098042734
-3.9746375	charge	-0.098042734
-3.9746375	enlightenment	-0.098042734
-3.9746375	demons	-0.098042734
-3.8506508	man	-0.098042734
-3.9746375	bursary	-0.098042734
-3.9746375	Beware	-0.098042734
-3.9746375	extol	-0.098042734
-3.9746375	Their	-0.098042734
-3.9746375	reckoning	-0.098042734
-3.9746375	waking	-0.098042734
-3.9746375	digesting	-0.098042734
-3.9746375	dollops	-0.098042734
-3.9746375	nourishing	-0.098042734
-3.9746375	scholarship	-0.098042734
-3.9746375	fed	-0.098042734
-3.9746375	assistants	-0.098042734
-3.9746375	coined	-0.098042734
-3.9746375	dispensed	-0.098042734
-3.9746375	mastered	-0.098042734
-3.9746375	signs	-0.098042734
-3.9746375	dancing	-0.098042734
-3.9746375	raw	-0.098042734
-3.9746375	cupidity	-0.098042734
-3.9746375	corrupts	-0.098042734
-3.9746375	soul	-0.098042734
-3.9746375	contemplating	-0.098042734
-3.9746375	materialist	-0.098042734
-3.9746375	purchases	-0.098042734
-3.9746375	disturbs	-0.098042734
-3.9746375	Disrupting	-0.098042734
-3.9746375	evolving	-0.098042734
-3.9746375	relationship	-0.098042734
-3.9746375	saddling	-0.098042734
-3.9746375	questing	-0.098042734
-3.8506508	minimum	-0.098042734
-3.9746375	drudgery	-0.098042734
-3.9746375	interfering	-0.098042734
-3.9746375	ceaseless	-0.098042734
-3.9746375	cogitation	-0.098042734
-3.9746375	embraces	-0.098042734
-3.9746375	obscene	-0.098042734
-3.9746375	perversion	-0.098042734
-3.9746375	holy	-0.098042734
-3.9746375	Never	-0.098042734
-3.9746375	Again	-0.098042734
-3.9746375	carrels	-0.098042734
-3.9746375	undivided	-0.098042734
-3.8506508	attention	-0.098042734
-3.9746375	across	-0.098042734
-3.9746375	barricades	-0.098042734
-3.9746375	gGreat	-0.098042734
-3.9746375	Works	-0.098042734
-3.8506508	\	-0.098042734
-3.9746375	rightly	-0.098042734
-3.9746375	unread	-0.098042734
-3.9746375	relentless	-0.098042734
-3.9746375	racism	-0.098042734
-3.9746375	misogyny	-0.098042734
-3.9746375	cobblestones	-0.098042734
-3.9746375	unite	-0.098042734
-3.9746375	shape	-0.098042734
-3.9746375	passing	-0.098042734
-3.9746375	examinations	-0.098042734
-3.9746375	stores	-0.098042734
-3.9746375	awake	-0.098042734
-3.9746375	failing	-0.098042734
-3.9746375	asked	-0.098042734
-3.9746375	obstructs	-0.098042734
-3.9746375	discouraged	-0.098042734
-3.9746375	tool	-0.098042734
-3.9746375	sons	-0.098042734
-3.9746375	daughters	-0.098042734
-3.9746375	dreams	-0.098042734
-3.9746375	dashed	-0.098042734
-3.9746375	behalf	-0.098042734
-3.9746375	hurting	-0.098042734
-3.9746375	destroying	-0.098042734
-3.9746375	low-skilled	-0.098042734
-3.9746375	flip	-0.098042734
-3.9746375	whatsoever	-0.098042734
-3.9746375	pertain	-0.098042734
-3.8506508	U.S.	-0.098042734
-3.9746375	voice	-0.098042734
-3.9746375	admitted	-0.098042734
-3.9746375	Conversely	-0.098042734
-3.9746375	speaking	-0.098042734
-3.9746375	United	-0.098042734
-3.9746375	States	-0.098042734
-3.9746375	consuming	-0.098042734
-3.9746375	commuting	-0.098042734
-3.8506508	merely	-0.098042734
-3.9746375	obligatory	-0.098042734
-3.9746375	sustain	-0.098042734
-3.9746375	existence	-0.098042734
-3.678229	eat	-0.098042734
-3.8506508	opposed	-0.21423665
-3.9746375	taken-on	-0.098042734
-3.9746375	compromised	-0.098042734
-3.9746375	excellence	-0.098042734
-3.8506508	finishing	-0.098042734
-3.9746375	sake	-0.098042734
-3.9746375	burdened	-0.098042734
-3.9746375	fiscal	-0.098042734
-3.9746375	none	-0.098042734
-3.9746375	assume	-0.098042734
-3.9746375	academically	-0.098042734
-3.9746375	minded	-0.098042734
-3.9746375	high-school	-0.098042734
-3.9746375	focuses	-0.098042734
-3.9746375	mastering	-0.098042734
-3.9746375	foremost	-0.098042734
-3.9746375	concepts	-0.098042734
-3.9746375	detail	-0.098042734
-3.8506508	depth	-0.098042734
-3.9746375	analysis	-0.098042734
-3.8506508	mundane	-0.098042734
-3.678229	holding	-0.17195599
-3.8506508	distract	-0.098042734
-3.9746375	hamstring	-0.098042734
-3.9746375	efficacy	-0.098042734
-3.9746375	himself	-0.098042734
-3.9746375	confident	-0.098042734
-3.9746375	His	-0.098042734
-3.9746375	plenty	-0.098042734
-3.9746375	negatively	-0.098042734
-3.9746375	term	-0.098042734
-3.8506508	past	-0.098042734
-3.9746375	father	-0.098042734
-3.9746375	grandfather	-0.098042734
-3.9746375	supply	-0.098042734
-3.9746375	modest	-0.098042734
-3.8506508	five	-0.098042734
-3.9746375	wife	-0.098042734
-3.9746375	carrying	-0.098042734
-3.9746375	entrance	-0.098042734
-3.9746375	work-force	-0.098042734
-3.9746375	coupled	-0.098042734
-3.8506508	near	-0.098042734
-3.9746375	adequately	-0.098042734
-3.9746375	four-year	-0.098042734
-3.9746375	woman	-0.098042734
-3.9746375	dedicating	-0.098042734
-3.9746375	Achieving	-0.098042734
-3.9746375	marks	-0.098042734
-3.9746375	devoted	-0.098042734
-3.9746375	safe-guarded	-0.098042734
-3.9746375	maximum	-0.098042734
-3.9746375	diluted	-0.098042734
-3.8506508	worries	-0.098042734
-3.9746375	associated	-0.098042734
-3.9746375	hold-down	-0.098042734
-3.9746375	Let	-0.098042734
-3.9746375	ultimate	-0.098042734
-3.9746375	anybody	-0.098042734
-3.9746375	advances	-0.098042734
-3.8506508	distracted	-0.098042734
-3.9746375	falter	-0.098042734
-3.9746375	schoolwork	-0.098042734
-3.9746375	standing	-0.098042734
-3.9746375	hurry	-0.098042734
-3.9746375	pressured	-0.098042734
-3.9746375	running	-0.098042734
-3.9746375	overwhelmed	-0.098042734
-3.9746375	strapped	-0.098042734
-3.9746375	reliance	-0.098042734
-3.9746375	behoove	-0.098042734
-3.9746375	valid	-0.098042734
-3.9746375	counter-argument	-0.098042734
-3.9746375	paramount	-0.098042734
-3.9746375	doctor	-0.098042734
-3.9746375	tolerate	-0.098042734
-3.9746375	repay	-0.098042734
-3.9746375	seriously	-0.098042734
-3.9746375	jeopardize	-0.098042734
-3.9746375	coin	-0.098042734
-3.9746375	vogue	-0.098042734
-3.8506508	expression	-0.098042734
-3.9746375	gI	-0.098042734
-3.9746375	robbing	-0.098042734
-3.9746375	Peter	-0.098042734
-3.9746375	Paul	-0.098042734
-3.9746375	h.	-0.098042734
-3.9746375	rests	-0.098042734
-3.9746375	onus	-0.098042734
-3.9746375	innumerable	-0.098042734
-3.9746375	enlightened	-0.098042734
-3.9746375	18	-0.098042734
-3.9746375	liked	-0.098042734
-3.8506508	nonetheless	-0.098042734
-3.5348082	approach	-0.098042734
-3.9746375	graduated	-0.098042734
-3.9746375	bills	-0.098042734
-3.9746375	smooth	-0.098042734
-3.5348082	here	-0.098042734
-3.9746375	started	-0.098042734
-3.8506508	aside	-0.098042734
-3.9746375	etime	-0.098042734
-3.9746375	workloads	-0.098042734
-3.9746375	volume	-0.098042734
-3.9746375	shift	-0.098042734
-3.9746375	afterwards	-0.098042734
-3.9746375	ehealthy	-0.098042734
-3.9746375	body	-0.098042734
-3.9746375	rings	-0.098042734
-3.9746375	fatigued	-0.098042734
-3.9746375	over-exertion	-0.098042734
-3.9746375	weekend	-0.098042734
-3.9746375	availability	-0.098042734
-3.9746375	negates	-0.098042734
-3.9746375	5-day	-0.098042734
-3.9746375	6	-0.098042734
-3.9746375	compounded	-0.098042734
-3.9746375	single	-0.098042734
-3.9746375	relaxation	-0.098042734
-3.9746375	held	-0.098042734
-3.9746375	relied	-0.098042734
-3.9746375	else	-0.098042734
-3.9746375	utilize	-0.098042734
-3.9746375	Obliging	-0.098042734
-3.9746375	detrimental	-0.098042734
-3.9746375	outlook	-0.098042734
-3.9746375	feelings	-0.098042734
-3.9746375	depression	-0.098042734
-3.9746375	pessimism	-0.098042734
-3.9746375	honest	-0.098042734
-3.9746375	hadn	-0.098042734
-3.9746375	Indeed	-0.098042734
-3.9746375	perspective	-0.098042734
-3.9746375	Before	-0.098042734
-3.9746375	30	-0.098042734
-3.9746375	hardly	-0.098042734
-3.9746375	catch	-0.098042734
-3.9746375	ended	-0.098042734
-3.9746375	cars	-0.098042734
-3.8506508	fancy	-0.21423665
-3.9746375	cigarettes	-0.098042734
-3.9746375	beer	-0.098042734
-3.9746375	drop	-0.098042734
-3.9746375	interviewed	-0.098042734
-3.9746375	cared	-0.098042734
-3.9746375	bartender	-0.098042734
-3.9746375	impress	-0.098042734
-3.9746375	anti-smoking	-0.098042734
-3.9746375	lag	-0.098042734
-3.8506508	significantly	-0.098042734
-3.9746375	nations	-0.098042734
-3.9746375	progress	-0.098042734
-3.8506508	total	-0.098042734
-2.7521589	smoking	-0.20912977
-3.9746375	undoubtedly	-0.098042734
-3.9746375	resistance	-0.098042734
-3.8506508	restrictions	-0.21423665
-3.9746375	Implementing	-0.098042734
-3.9746375	represent	-0.098042734
-3.9746375	opposite	-0.098042734
-3.9746375	Between	-0.098042734
-3.9746375	polar	-0.098042734
-3.9746375	extremes	-0.098042734
-3.9746375	route	-0.098042734
-3.9746375	advisable	-0.098042734
-3.9746375	urge	-0.098042734
-2.9868817	smoke	-0.20451537
-3.8506508	regardless	-0.098042734
-3.9746375	well-being	-0.098042734
-3.9746375	considering	-0.098042734
-3.8506508	rights	-0.098042734
-3.9746375	concerns	-0.098042734
-3.678229	places	-0.098042734
-3.9746375	partial	-0.098042734
-3.4271748	banning	-0.37108302
-3.9746375	implemented	-0.098042734
-3.9746375	Restaurants	-0.098042734
-3.9746375	legally	-0.098042734
-3.9746375	compelled	-0.098042734
-3.8506508	separate	-0.098042734
-3.9746375	ventilated	-0.098042734
-3.9746375	room	-0.098042734
-3.8506508	patrons	-0.098042734
-3.9746375	alternatively	-0.098042734
-3.9746375	renovations	-0.098042734
-3.678229	non-smoking	-0.098042734
-3.9746375	establishment	-0.098042734
-3.9746375	built	-0.098042734
-3.9746375	facilities	-0.098042734
-3.9746375	lax	-0.098042734
-3.9746375	standards	-0.098042734
-3.9746375	meal	-0.098042734
-3.9746375	exposing	-0.098042734
-3.9746375	cancer	-0.098042734
-3.9746375	asthma	-0.098042734
-3.9746375	respiratory	-0.098042734
-3.9746375	worst	-0.098042734
-3.9746375	sufferers	-0.098042734
-3.8506508	ill	-0.098042734
-3.5348082	effects	-0.47831634
-3.9746375	Smoking	-0.098042734
-3.9746375	alone	-0.098042734
-3.9746375	kills	-0.098042734
-3.9746375	hundreds	-0.098042734
-3.9746375	sick	-0.098042734
-3.9746375	nowadays	-0.098042734
-3.8506508	everywhere	-0.098042734
-3.9746375	Inside	-0.098042734
-3.8506508	breathing	-0.21423665
-3.9746375	appetite	-0.098042734
-3.9746375	smells	-0.098042734
-3.9746375	harm	-0.098042734
-3.9746375	Nothing	-0.098042734
-3.9746375	justify	-0.098042734
-3.8506508	interference	-0.098042734
-3.8506508	justified	-0.098042734
-3.8506508	affect	-0.098042734
-3.9746375	moral	-0.098042734
-3.8506508	justification	-0.098042734
-3.9746375	@	-0.098042734
-3.9746375	guide	-0.098042734
-3.678229	choices	-0.098042734
-3.9746375	warnings	-0.098042734
-3.9746375	campaigns	-0.098042734
-3.9746375	perfectly	-0.098042734
-3.9746375	passive	-0.098042734
-3.8506508	inhaling	-0.098042734
-3.9746375	unknowingly	-0.098042734
-3.9746375	affecting	-0.098042734
-3.9746375	Banning	-0.098042734
-3.9746375	premise	-0.098042734
-3.9746375	rational	-0.098042734
-3.9746375	employee	-0.098042734
-3.9746375	UK	-0.098042734
-3.9746375	parts	-0.098042734
-3.9746375	US	-0.098042734
-3.9746375	conscious	-0.098042734
-3.9746375	citizens	-0.098042734
-3.9746375	despite	-0.098042734
-3.9746375	infringement	-0.098042734
-3.678229	second-hand	-0.35337758
-3.5348082	non-smokers	-0.1522653
-3.9746375	Family	-0.098042734
-3.9746375	prone	-0.098042734
-3.5348082	smokers	-0.14086568
-3.9746375	Keeping	-0.098042734
-3.9746375	smoke-free	-0.098042734
-3.9746375	occur	-0.098042734
-3.9746375	Putting	-0.098042734
-3.9746375	potentially	-0.098042734
-3.9746375	unwanted	-0.098042734
-3.8506508	exposure	-0.21423665
-3.678229	tobacco	-0.098042734
-3.9746375	air	-0.098042734
-3.9746375	definite	-0.098042734
-3.9746375	served	-0.098042734
-3.9746375	smell	-0.098042734
-3.9746375	entangled	-0.098042734
-3.9746375	tell	-0.098042734
-3.9746375	tastes	-0.098042734
-3.8506508	altogether	-0.21423665
-3.9746375	Smokers	-0.098042734
-3.9746375	welfare	-0.098042734
-3.9746375	includes	-0.098042734
-3.9746375	Tobacco	-0.098042734
-3.8506508	poison	-0.098042734
-3.9746375	anywhere	-0.098042734
-3.9746375	close	-0.098042734
-3.9746375	permeates	-0.098042734
-3.9746375	foods	-0.098042734
-3.9746375	breathe	-0.098042734
-3.9746375	alters	-0.098042734
-3.9746375	habit-forming	-0.098042734
-3.9746375	stimulant	-0.098042734
-3.9746375	react	-0.098042734
-3.9746375	violently	-0.098042734
-3.9746375	Customers	-0.098042734
-3.9746375	heard	-0.098042734
-3.8506508	smoky	-0.098042734
-3.9746375	fair	-0.098042734
-3.9746375	Restaurant	-0.098042734
-3.9746375	Regular	-0.098042734
-3.9746375	withdrawal	-0.098042734
-3.9746375	pains	-0.098042734
-3.9746375	addicted	-0.098042734
-3.9746375	Exposing	-0.098042734
-3.9746375	insult	-0.098042734
-3.9746375	safety	-0.098042734
-3.9746375	selfish	-0.098042734
-3.9746375	implementing	-0.098042734
-3.9746375	examined	-0.098042734
-3.9746375	concerning	-0.098042734
-3.9746375	Principally	-0.098042734
-3.8506508	wise	-0.098042734
-3.8506508	forced	-0.21423665
-3.9746375	compromise	-0.098042734
-3.9746375	regarding	-0.098042734
-3.9746375	lifestyles	-0.098042734
-3.9746375	discourage	-0.098042734
-3.9746375	importantly	-0.098042734
-3.9746375	account	-0.098042734
-3.9746375	smoke-filled	-0.098042734
-3.9746375	ignored	-0.098042734
-3.9746375	long-term	-0.098042734
-3.9746375	national	-0.098042734
-3.9746375	healthcare	-0.098042734
-3.9746375	treatment	-0.098042734
-3.9746375	tobacco-related	-0.098042734
-3.9746375	illnesses	-0.098042734
-3.9746375	context	-0.098042734
-3.9746375	firstly	-0.098042734
-3.9746375	promote	-0.098042734
-3.9746375	comfort	-0.098042734
-3.9746375	diners	-0.098042734
-3.9746375	proven	-0.098042734
-3.9746375	amongst	-0.098042734
-3.9746375	ages	-0.098042734
-3.9746375	pastime	-0.098042734
-3.9746375	deeply	-0.098042734
-3.9746375	integrated	-0.098042734
-3.9746375	passively	-0.098042734
-3.9746375	contracting	-0.098042734
-3.9746375	illness	-0.098042734
-3.9746375	severe	-0.098042734
-3.9746375	profits	-0.098042734
-3.9746375	introduce	-0.098042734
-3.9746375	sections	-0.098042734
-3.9746375	segregate	-0.098042734
-3.9746375	suits	-0.098042734
-3.9746375	succeed	-0.098042734
-3.9746375	gradually	-0.098042734
-3.9746375	improving	-0.098042734
-3.9746375	clearly	-0.098042734
-3.9746375	harmful	-0.098042734
-3.9746375	secondhand	-0.098042734

\2-grams:
-0.0012649981	. </s>	0
-0.05949721	? </s>	0
-2.1446047	-RRB- </s>	0
-0.12845917	! </s>	0
-1.7663178	individual </s>	0
-1.0685297	<s> I	-0.41439435
-1.6155277	reasons I	-0.11268411
-2.3118994	that I	-0.13618872
-2.1031294	job I	-0.04895735
-1.3998553	, I	-0.22112566
-2.0044537	and I	-0.048957378
-1.6042035	as I	-0.048957378
-1.3682404	reason I	-0.048957378
-2.673871	students I	-0.048957378
-0.9847774	Therefore I	-0.048957378
-1.9911177	then I	-0.187397
-2.544403	college I	-0.048957378
-1.7705758	And I	-0.048957378
-2.1540918	so I	-0.048957378
-1.2360636	: I	-0.048957378
-1.6455997	employers I	-0.048957378
-1.8020827	like I	-0.048957378
-1.2064477	when I	-0.11268411
-1.6699961	what I	-0.048957378
-2.068887	could I	-0.048957378
-1.1479716	because I	-0.048957378
-1.9872543	If I	-0.048957378
-0.8012204	whatever I	-0.048957378
-1.7496611	responsibilities I	-0.048957378
-1.596395	which I	-0.048957378
-1.5678455	however I	-0.048957378
-1.9402759	where I	-0.048957378
-0.9847774	extent I	-0.048957378
-1.5031465	So I	-0.048957378
-1.2753446	Perhaps I	-0.048957378
-1.8586221	think I	-0.048957378
-1.0509765	why I	-0.13618872
-1.1556058	Australia I	-0.048957378
-0.9847774	summary I	-0.048957378
-0.6890748	Overall I	-0.048957378
-1.2753446	When I	-0.04895735
-0.6890748	justice I	-0.048957378
-1.282293	wish I	-0.048957378
-0.9847774	U.S. I	-0.048957378
-2.7368789	I disagree	-0.37097517
-0.99501497	partially disagree	-0.048957378
-0.7942637	disagree with	-0.70552063
-2.2168078	student with	-0.048957378
-2.002276	, with	-0.048957378
-1.413362	case with	-0.048957378
-2.277343	in with	-0.048957378
-2.114054	and with	-0.04895735
-1.8664051	working with	-0.048957378
-1.6857973	students with	-0.04895735
-2.3546855	time with	-0.048957378
-2.1668954	jobs with	-0.048957378
-2.3388495	work with	-0.13618872
-0.3862648	agree with	-0.70552063
-1.4221039	begin with	-0.048957378
-2.2686563	are with	-0.048957378
-1.52707	experiences with	-0.048957378
-0.9731246	team with	-0.048957378
-1.408685	productive with	-0.048957378
-0.93599224	relationships with	-0.048957378
-2.1311364	people with	-0.048957378
-1.5142454	true with	-0.048957378
-1.5826072	help with	-0.04895735
-2.1114128	do with	-0.048957378
-0.6831375	familiar with	-0.048957378
-0.40507883	interfere with	-0.187397
-1.8622386	activities with	-0.048957378
-1.7455719	life with	-0.187397
-1.4935277	up with	-0.048957378
-0.6831375	combines with	-0.048957378
-1.7117923	income with	-0.048957378
-1.7904192	living with	-0.048957378
-0.9731246	communicate with	-0.048957378
-1.52707	responsible with	-0.048957378
-0.9731246	flexible with	-0.048957378
-0.9731246	fill with	-0.048957378
-0.6831375	cope with	-0.048957378
-1.4540396	out with	-0.04895735
-1.7978033	those with	-0.048957378
-0.9731246	comparison with	-0.048957378
-1.4658345	problem with	-0.048957378
-1.5560237	families with	-0.048957378
-1.7279987	day with	-0.048957378
-0.7942637	drinking with	-0.048957378
-0.6831375	association with	-0.048957378
-0.6831375	remain with	-0.048957378
-0.9731246	organized with	-0.048957378
-1.1384469	basis with	-0.048957378
-0.6831375	Along with	-0.048957378
-1.1384469	schedules with	-0.048957378
-1.5187173	complete with	-0.048957378
-0.6831375	along with	-0.048957378
-1.56482	spent with	-0.048957378
-0.6831375	interact with	-0.048957378
-0.6831375	interacting with	-0.048957378
-1.5603997	me with	-0.048957378
-1.2528772	schedule with	-0.048957378
-0.6831375	continued with	-0.048957378
-0.6831375	efficiently with	-0.048957378
-0.6831375	helping with	-0.048957378
-0.2700946	dealing with	-0.13332285
-0.9731246	communicating with	-0.048957378
-0.6831375	oneself with	-0.048957378
-1.408685	habits with	-0.048957378
-0.6831375	tie-in with	-0.048957378
-0.9731246	claim with	-0.048957378
-0.6831375	cooperation with	-0.048957378
-0.9731246	wrong with	-0.048957378
-0.6831375	bonus with	-0.048957378
-0.6831375	interferes with	-0.048957378
-0.6831375	trapped with	-0.048957378
-0.6831375	boom with	-0.048957378
-1.8179587	restaurants with	-0.048957378
-0.6831375	relationship with	-0.048957378
-0.6831375	interfering with	-0.048957378
-0.6831375	burdened with	-0.048957378
-0.6831375	coupled with	-0.048957378
-0.6831375	diluted with	-0.048957378
-0.6831375	associated with	-0.048957378
-0.6831375	rests with	-0.048957378
-0.6831375	held with	-0.048957378
-0.6831375	interviewed with	-0.048957378
-0.6831375	implemented with	-0.048957378
-0.6831375	entangled with	-0.048957378
-2.0696561	with this	-0.73184955
-2.0768657	for this	-0.1722646
-2.4861102	job this	-0.048957378
-1.6605835	upon this	-0.048957378
-2.0597382	, this	-0.08422062
-1.9358038	In this	-0.048957378
-1.856033	in this	-0.099168696
-2.4482787	and this	-0.048957378
-1.9986331	of this	-0.048957378
-2.6253626	to this	-0.048957378
-1.7144383	For this	-0.27955192
-2.3825915	from this	-0.048957378
-2.5046253	on this	-0.048957378
-1.9938124	then this	-0.048957378
-1.5521976	but this	-0.048957378
-1.5063467	consider this	-0.048957378
-1.9040649	at this	-0.048957378
-1.9318298	doing this	-0.048957378
-2.2408266	do this	-0.13618872
-1.9063913	believe this	-0.048957378
-1.3712003	during this	-0.048957378
-0.68921393	maintain this	-0.048957378
-1.8533039	support this	-0.048957378
-1.5063467	feel this	-0.048957378
-1.1584141	ease this	-0.048957378
-1.3677793	though this	-0.048957378
-1.2758812	Perhaps this	-0.048957378
-1.6058056	since this	-0.048957378
-1.6058056	why this	-0.048957378
-0.68921393	admit this	-0.048957378
-1.374476	realize this	-0.048957378
-0.9850521	recognize this	-0.048957378
-1.3677793	certainly this	-0.048957378
-0.9850521	Doing this	-0.048957378
-0.68921393	Interrupting this	-0.048957378
-0.68921393	Disrupting this	-0.048957378
-0.9850521	distract this	-0.048957378
-0.68921393	Keeping this	-0.048957378
-2.4409037	this statement	-0.38603142
-2.85306	the statement	-0.11268411
-2.3608074	The statement	-0.048957378
-1.294531	above statement	-0.048957378
-2.5278392	<s> for	-0.048957378
-1.0219545	statement for	-0.13332285
-1.0779753	reasons for	-0.1722646
-2.2203712	that for	-0.048957378
-1.5585953	job for	-0.048957378
-1.9413155	is for	-0.04895735
-0.17291874	preparation for	-0.048957378
-1.5266267	full-time for	-0.048957378
-2.0927892	will for	-0.048957378
-1.7022598	, for	-0.19825454
-2.0568473	not for	-0.048957378
-2.114417	and for	-0.048957378
-2.3022451	to for	-0.048957378
-1.944184	study for	-0.048957378
-1.5204926	studying for	-0.048957378
-1.7073846	experience for	-0.048957378
-1.3835486	working for	-0.048957378
-0.6986842	reason for	-0.048957378
-1.6065047	time for	-0.08422062
-1.9452095	school for	-0.048957378
-2.1568348	work for	-0.048957378
-1.774954	-LRB- for	-0.048957378
-1.8295575	but for	-0.048957378
-1.5234151	only for	-0.04895735
-0.7025396	necessary for	-0.048957378
-0.598935	pay for	-0.07613316
-1.4443347	fees for	-0.048957378
-1.2561064	money for	-0.048957378
-1.6203611	And for	-0.048957378
-1.0219545	bad for	-0.187397
-1.1141013	market for	-0.048957378
-1.4229276	does for	-0.048957378
-1.7952361	even for	-0.048957378
-0.572456	foundation for	-0.048957378
-0.95634013	history for	-0.048957378
-0.95634013	candidate for	-0.048957378
-1.3513856	better for	-0.048957378
-2.0051796	skills for	-0.048957378
-0.69287807	important for	-0.6495775
-1.4366772	issue for	-0.048957378
-1.7528588	enough for	-0.048957378
-1.3670125	need for	-0.048957378
-1.3944039	good for	-0.11268411
-1.1182201	idea for	-0.04895735
-1.8215423	parents for	-0.048957378
-1.4584918	true for	-0.048957378
-1.9731671	do for	-0.048957378
-1.3862062	chance for	-0.048957378
-0.5652439	opportunity for	-0.048957378
-1.0617472	them for	-0.13332285
-1.5087376	useful for	-0.048957378
-0.97337675	done for	-0.048957378
-1.2296209	fit for	-0.048957378
-1.9170562	get for	-0.048957378
-0.6744481	unprepared for	-0.048957378
-1.6189606	responsibilities for	-0.048957378
-1.3862062	used for	-0.048957378
-1.3643708	late for	-0.048957378
-1.5915792	difficult for	-0.048957378
-1.2214524	cash for	-0.048957378
-1.6321046	income for	-0.048957378
-1.6691784	way for	-0.048957378
-0.6640692	responsible for	-0.04895735
-1.2214524	arguments for	-0.048957378
-1.1141013	'' for	-0.048957378
-0.97991747	value for	-0.048957378
-0.6744481	passion for	-0.048957378
-1.4584918	great for	-0.048957378
-0.95634013	stand for	-0.048957378
-1.1141013	contacts for	-0.048957378
-1.4584918	best for	-0.048957378
-1.1141013	matter for	-0.048957378
-1.2214524	him for	-0.048957378
-1.7452198	hard for	-0.048957378
-1.4229276	Working for	-0.048957378
-1.1141013	material for	-0.048957378
-1.2214524	concern for	-0.048957378
-1.3014593	hold for	-0.048957378
-0.6744481	traverse for	-0.048957378
-1.3537269	things for	-0.048957378
-0.6744481	paying for	-0.048957378
-1.3014593	rent for	-0.048957378
-1.4584918	made for	-0.048957378
-0.95634013	ready for	-0.048957378
-1.6564035	day for	-0.048957378
-0.95634013	lost for	-0.048957378
-1.198989	responsibility for	-0.04895735
-0.6744481	identity for	-0.048957378
-0.6744481	handle for	-0.048957378
-1.5018239	independence for	-0.048957378
-1.2214524	positive for	-0.048957378
-1.1141013	common for	-0.048957378
-0.95634013	applications for	-0.048957378
-0.69226825	possibilities for	-0.048957378
-0.6744481	aptitude for	-0.048957378
-1.1141013	basis for	-0.048957378
-1.3643708	around for	-0.048957378
-0.7841116	essential for	-0.048957378
-1.1141013	budget for	-0.048957378
-1.1141013	distraction for	-0.048957378
-0.95634013	conditions for	-0.048957378
-0.6744481	excuses for	-0.048957378
-1.1942735	right for	-0.048957378
-1.4366772	save for	-0.048957378
-0.69226825	respect for	-0.048957378
-1.3014593	policy for	-0.048957378
-0.95634013	mainly for	-0.048957378
-1.1141013	prepare for	-0.187397
-0.6744481	prepared for	-0.048957378
-1.1141013	critical for	-0.048957378
-0.6744481	empathy for	-0.048957378
-0.786483	required for	-0.048957378
-0.6744481	replacement for	-0.048957378
-0.6744481	struggle for	-0.048957378
-0.7841116	look for	-0.04895735
-0.6744481	looking for	-0.048957378
-1.1141013	expense for	-0.048957378
-1.1141013	loan for	-0.048957378
-1.3093133	materials for	-0.048957378
-1.1141013	low for	-0.048957378
-1.1226108	rewarding for	-0.048957378
-1.2214524	wanted for	-0.048957378
-0.6744481	options for	-0.048957378
-0.6744481	grandparents for	-0.048957378
-0.6744481	exchange for	-0.048957378
-0.6744481	arrange for	-0.048957378
-0.572456	paid for	-0.048957378
-0.6744481	Searching for	-0.048957378
-0.6744481	begging for	-0.048957378
-0.6744481	traumatizing for	-0.048957378
-0.6744481	bond for	-0.048957378
-0.6744481	dogs for	-0.048957378
-0.6744481	ideal for	-0.048957378
-0.6744481	disparate for	-0.048957378
-0.6744481	applying for	-0.048957378
-0.6744481	chances for	-0.048957378
-0.6744481	charge for	-0.048957378
-0.6744481	tool for	-0.048957378
-0.95634013	finishing for	-0.048957378
-0.6744481	carrying for	-0.048957378
-0.6744481	availability for	-0.048957378
-1.789221	smoke for	-0.048957378
-0.6744481	room for	-0.048957378
-0.95634013	justification for	-0.048957378
-0.95634013	smoky for	-0.048957378
-0.6744481	treatment for	-0.048957378
-1.9351243	for several	-0.40449065
-2.7689722	be several	-0.048957378
-3.2900462	, several	-0.048957378
-1.7594332	For several	-0.048957378
-2.3036728	are several	-0.048957378
-1.6385572	offer several	-0.048957378
-2.353659	do several	-0.048957378
-1.5323278	waste several	-0.048957378
-1.8572801	had several	-0.048957378
-0.77503145	several reasons	-0.25144583
-2.7172563	the reasons	-0.048957378
-2.3028388	many reasons	-0.048957378
-2.6201468	of reasons	-0.13618872
-2.2887797	The reasons	-0.048957378
-1.9765648	financial reasons	-0.048957378
-1.6304226	following reasons	-0.13618872
-1.8151026	more reasons	-0.048957378
-0.3378226	two reasons	-0.12260215
-1.0582707	main reasons	-0.048957378
-2.1772497	these reasons	-0.2403142
-1.3826258	various reasons	-0.048957378
-0.475587	three reasons	-0.099168696
-2.3262591	my reasons	-0.048957378
-1.2878569	above reasons	-0.187397
-0.9911411	excellent reasons	-0.048957378
-2.0520139	<s> .	-0.048957378
-1.1706125	disagree .	-0.048957378
-1.2696567	this .	-0.50140065
-1.3076993	statement .	-0.40449065
-1.6404672	for .	-0.27955192
-0.7386445	reasons .	-0.9485587
-1.0515057	it .	-0.8024306
-1.8675882	part-time .	-0.048957378
-1.0911365	job .	-1.3934952
-1.7278584	is .	-0.27955192
-1.2126651	student .	-0.70552063
-0.45037383	graduation .	-0.75667316
-1.619139	not .	-0.048957378
-0.8031024	case .	-0.27955192
-0.5351286	employment .	-0.70552063
-1.7663496	in .	-0.187397
